{"learner":{"attributes":{"best_iteration":"99","best_score":"65178.40146322822"},"feature_names":["Year","Faculty_Count","Student_Count","Lab_Count","Building_Area","Tuition_Income","Prev_Year_Cost","Faculty_per_Student","Lab_per_Student","Building_Area_per_Student","Department_CIVIL","Department_CSE","Department_ECE","Department_EEE","Department_IT","Department_MECH"],"feature_types":["int","int","int","int","int","int","int","float","float","float","i","i","i","i","i","i"],"gradient_booster":{"model":{"gbtree_model_param":{"num_parallel_tree":"1","num_trees":"100"},"iteration_indptr":[0,1,2,3,4,5,6,7,8,9,10,11,12,13,14,15,16,17,18,19,20,21,22,23,24,25,26,27,28,29,30,31,32,33,34,35,36,37,38,39,40,41,42,43,44,45,46,47,48,49,50,51,52,53,54,55,56,57,58,59,60,61,62,63,64,65,66,67,68,69,70,71,72,73,74,75,76,77,78,79,80,81,82,83,84,85,86,87,88,89,90,91,92,93,94,95,96,97,98,99,100],"tree_info":[0,0,0,0,0,0,0,0,0,0,0,0,0,0,0,0,0,0,0,0,0,0,0,0,0,0,0,0,0,0,0,0,0,0,0,0,0,0,0,0,0,0,0,0,0,0,0,0,0,0,0,0,0,0,0,0,0,0,0,0,0,0,0,0,0,0,0,0,0,0,0,0,0,0,0,0,0,0,0,0,0,0,0,0,0,0,0,0,0,0,0,0,0,0,0,0,0,0,0,0],"trees":[{"base_weights":[-2.052948E3,-1.1133311E6,1.00602206E6,-1.6130008E6,-5.4222E5,6.2836125E5,1.6674496E6,-1.2535831E6,-2.0602771E6,-1.4225434E5,-9.674247E5,1.02934856E6,2.7771438E5,2.0892885E6,1.2788369E6,-1.5558788E6,-9.965742E5,-2.235849E6,-1.6648788E6,1.08121805E5,-3.3085328E5,-1.3347125E6,-6.716165E5,6.693794E5,1.3780461E6,-7.6627984E4,5.364341E5,1.6129439E6,2.3993638E6,9.685545E5,1.7628735E6,-1.2450718E6,-1.688124E6,-7.020632E5,-1.2219738E6,-2.3471617E5,-1.9299962E5,-1.394805E6,-1.8207992E5,-9.045081E4,4.2536762E5,-4.6609688E5,4.6974652E4,-1.5251485E6,-9.810159E5,-8.1294556E5,-2.856223E5,2.7449816E5,9.334525E5,1.0925729E6,1.7520232E6,1.2363382E5,-4.2621538E5,1.5836247E5,7.8577256E5,1.0765411E6,1.7696039E6,1.2965218E5,2.4590688E6,5.5421906E5,1.1652458E6,6.38E5,1.8151064E6,-1.3173917E5,-7.702841E4,-1.7221912E5,-9.064832E4,-8.518171E4,-3.6110305E4,-1.489308E5,-1.0721185E5,-2.0046926E4,-1.4168911E5,-1.4007891E4,8.606474E4,5.8735186E3,6.96045E4,-7.065214E4,-3.3660086E4,-3.5723914E4,3.1903178E4,-1.2253621E5,-1.653884E5,-1.2078398E5,-8.104118E4,-4.4417137E4,-9.945393E4,-6.024428E4,-2.2645183E3,-1.2837485E3,4.1621332E4,6.8630945E4,1.496394E5,4.0215082E4,1.1811277E5,1.0613833E5,1.8362461E5,-1.0831901E4,4.3454547E4,-6.730637E4,-1.1317089E4,7.7022627E3,6.3806664E4,4.023257E4,9.744481E4,3.6594637E4,1.1444579E5,1.383943E5,1.9422461E5,2.2978273E5,2.8556072E5,7.819147E4,1.3265927E4,1.348577E5,7.544306E4,8.79167E4,2.3388335E3,2.1485295E5,1.6340416E5],"categories":[],"categories_nodes":[],"categories_segments":[],"categories_sizes":[],"default_left":[0,0,0,0,0,0,0,0,0,0,0,0,0,0,0,0,0,0,0,0,0,0,0,0,0,0,0,0,0,0,0,0,0,0,0,0,0,0,0,0,0,0,0,0,0,0,0,0,0,0,0,0,0,0,0,0,0,0,0,0,0,0,0,0,0,0,0,0,0,0,0,0,0,0,0,0,0,0,0,0,0,0,0,0,0,0,0,0,0,0,0,0,0,0,0,0,0,0,0,0,0,0,0,0,0,0,0,0,0,0,0,0,0,0,0,0,0,0,0],"id":0,"left_children":[1,3,5,7,9,11,13,15,17,19,21,23,25,27,29,31,33,35,37,39,41,43,45,47,49,51,53,55,57,59,61,63,65,67,69,-1,-1,71,-1,73,75,77,79,81,83,85,87,89,91,93,95,97,99,101,103,105,107,-1,109,111,113,115,117,-1,-1,-1,-1,-1,-1,-1,-1,-1,-1,-1,-1,-1,-1,-1,-1,-1,-1,-1,-1,-1,-1,-1,-1,-1,-1,-1,-1,-1,-1,-1,-1,-1,-1,-1,-1,-1,-1,-1,-1,-1,-1,-1,-1,-1,-1,-1,-1,-1,-1,-1,-1,-1,-1,-1,-1],"loss_changes":[3.5657613E15,4.3117096E14,4.158606E14,1.2714969E14,1.2026997E14,1.493178E14,9.6670855E13,3.3411155E13,2.1130165E13,1.731854E13,3.6369414E13,6.1335656E13,5.2204384E13,3.8816035E13,4.605235E13,6.3242387E12,1.5472217E13,3.8111124E12,2.2608976E12,9.991895E12,1.0701546E13,8.7420033E12,1.0241836E13,2.5396033E13,2.4882692E13,1.6924863E13,3.0889682E13,7.9267984E12,8.202985E12,1.532743E13,6.0688895E12,1.2171115E12,2.1934532E12,5.2579585E12,3.9317573E12,0E0,0E0,9.293487E11,0E0,4.746275E12,6.0127036E12,4.55682E12,6.272248E12,1.7169132E12,1.1881918E12,8.933641E12,4.4021344E12,4.0773254E12,1.9424703E13,8.390336E12,4.2749689E12,1.1153062E13,6.723984E12,5.1013705E12,1.3932656E13,9.807688E11,3.237751E12,0E0,3.8603032E12,6.135447E12,8.924204E12,1.017006E12,3.5526426E12,0E0,0E0,0E0,0E0,0E0,0E0,0E0,0E0,0E0,0E0,0E0,0E0,0E0,0E0,0E0,0E0,0E0,0E0,0E0,0E0,0E0,0E0,0E0,0E0,0E0,0E0,0E0,0E0,0E0,0E0,0E0,0E0,0E0,0E0,0E0,0E0,0E0,0E0,0E0,0E0,0E0,0E0,0E0,0E0,0E0,0E0,0E0,0E0,0E0,0E0,0E0,0E0,0E0,0E0,0E0,0E0],"parents":[2147483647,0,0,1,1,2,2,3,3,4,4,5,5,6,6,7,7,8,8,9,9,10,10,11,11,12,12,13,13,14,14,15,15,16,16,17,17,18,18,19,19,20,20,21,21,22,22,23,23,24,24,25,25,26,26,27,27,28,28,29,29,30,30,31,31,32,32,33,33,34,34,37,37,39,39,40,40,41,41,42,42,43,43,44,44,45,45,46,46,47,47,48,48,49,49,50,50,51,51,52,52,53,53,54,54,55,55,56,56,58,58,59,59,60,60,61,61,62,62],"right_children":[2,4,6,8,10,12,14,16,18,20,22,24,26,28,30,32,34,36,38,40,42,44,46,48,50,52,54,56,58,60,62,64,66,68,70,-1,-1,72,-1,74,76,78,80,82,84,86,88,90,92,94,96,98,100,102,104,106,108,-1,110,112,114,116,118,-1,-1,-1,-1,-1,-1,-1,-1,-1,-1,-1,-1,-1,-1,-1,-1,-1,-1,-1,-1,-1,-1,-1,-1,-1,-1,-1,-1,-1,-1,-1,-1,-1,-1,-1,-1,-1,-1,-1,-1,-1,-1,-1,-1,-1,-1,-1,-1,-1,-1,-1,-1,-1,-1,-1,-1],"split_conditions":[5.85E2,4.52E2,7.86E2,3.883599E6,3.378663E6,3.264094E6,3.33499E6,3.61E2,8E0,1.987961E6,9E0,6.85E2,1.1E1,2.021E3,2.022E3,1.860022E6,2.256466E6,3.89E2,4.629011E6,2.022E3,1E1,5.12E2,3.2E1,2.021E3,2.022E3,4.916172E6,2.021E3,1.2E1,1.1E1,1.2E1,1.1E1,1E0,2.3E1,2.023E3,7E0,-2.3471617E5,-1.9299962E5,5.06E2,-1.8207992E5,3.5E1,5.07E2,2.4E1,2.021E3,4.354642E6,4.5558088E-2,4.196661E6,2.021E3,1E1,3.6E1,1E1,1E1,2.022E3,3.5E1,4.5E1,3.5E1,3.6E1,4.1E1,1.2965218E5,5E1,5.144245E6,5.232326E6,5.634752E6,4.162835E6,-1.3173917E5,-7.702841E4,-1.7221912E5,-9.064832E4,-8.518171E4,-3.6110305E4,-1.489308E5,-1.0721185E5,-2.0046926E4,-1.4168911E5,-1.4007891E4,8.606474E4,5.8735186E3,6.96045E4,-7.065214E4,-3.3660086E4,-3.5723914E4,3.1903178E4,-1.2253621E5,-1.653884E5,-1.2078398E5,-8.104118E4,-4.4417137E4,-9.945393E4,-6.024428E4,-2.2645183E3,-1.2837485E3,4.1621332E4,6.8630945E4,1.496394E5,4.0215082E4,1.1811277E5,1.0613833E5,1.8362461E5,-1.0831901E4,4.3454547E4,-6.730637E4,-1.1317089E4,7.7022627E3,6.3806664E4,4.023257E4,9.744481E4,3.6594637E4,1.1444579E5,1.383943E5,1.9422461E5,2.2978273E5,2.8556072E5,7.819147E4,1.3265927E4,1.348577E5,7.544306E4,8.79167E4,2.3388335E3,2.1485295E5,1.6340416E5],"split_indices":[2,2,2,5,5,5,5,2,3,5,3,2,3,0,0,5,5,2,5,0,3,2,1,0,0,5,0,3,3,3,3,15,1,0,3,0,0,4,0,1,2,1,0,5,7,5,0,3,1,3,3,0,1,1,1,1,1,0,1,5,5,5,5,0,0,0,0,0,0,0,0,0,0,0,0,0,0,0,0,0,0,0,0,0,0,0,0,0,0,0,0,0,0,0,0,0,0,0,0,0,0,0,0,0,0,0,0,0,0,0,0,0,0,0,0,0,0,0,0],"split_type":[0,0,0,0,0,0,0,0,0,0,0,0,0,0,0,0,0,0,0,0,0,0,0,0,0,0,0,0,0,0,0,0,0,0,0,0,0,0,0,0,0,0,0,0,0,0,0,0,0,0,0,0,0,0,0,0,0,0,0,0,0,0,0,0,0,0,0,0,0,0,0,0,0,0,0,0,0,0,0,0,0,0,0,0,0,0,0,0,0,0,0,0,0,0,0,0,0,0,0,0,0,0,0,0,0,0,0,0,0,0,0,0,0,0,0,0,0,0,0],"sum_hessian":[3.181E3,1.513E3,1.668E3,8.06E2,7.07E2,1.063E3,6.05E2,4.49E2,3.57E2,3.65E2,3.42E2,4.95E2,5.68E2,2.88E2,3.17E2,2.04E2,2.45E2,2.44E2,1.13E2,1.57E2,2.08E2,1.51E2,1.91E2,2.45E2,2.5E2,2.4E2,3.28E2,1.16E2,1.72E2,1.95E2,1.22E2,6.4E1,1.4E2,1.08E2,1.37E2,1.74E2,7E1,4.5E1,6.8E1,9.7E1,6E1,1.53E2,5.5E1,9.6E1,5.5E1,1.39E2,5.2E1,9.9E1,1.46E2,1.44E2,1.06E2,1.53E2,8.7E1,1.31E2,1.97E2,2.8E1,8.8E1,1E1,1.62E2,6.4E1,1.31E2,6E0,1.16E2,5.4E1,1E1,1.33E2,7E0,7.4E1,3.4E1,4.6E1,9.1E1,1E0,4.4E1,9.3E1,4E0,2.6E1,3.4E1,5.2E1,1.01E2,2.2E1,3.3E1,3.2E1,6.4E1,2.1E1,3.4E1,4.7E1,9.2E1,2.3E1,2.9E1,3.3E1,6.6E1,1.03E2,4.3E1,1.7E1,1.27E2,1.3E1,9.3E1,8.8E1,6.5E1,4.8E1,3.9E1,1.13E2,1.8E1,6.6E1,1.31E2,3E0,2.5E1,3E1,5.8E1,1.2E2,4.2E1,4.1E1,2.3E1,8.9E1,4.2E1,4E0,2E0,3.7E1,7.9E1],"tree_param":{"num_deleted":"0","num_feature":"16","num_nodes":"119","size_leaf_vector":"1"}},{"base_weights":[9.626363E3,-1.0683271E6,1.0882455E6,-1.7666096E6,-5.817907E5,5.906159E5,1.9185774E6,-2.2201632E6,-1.4910785E6,-8.793295E5,-2.9108384E5,2.919869E5,9.101934E5,1.6169025E6,2.547937E6,-2.4653045E5,-2.0215356E5,-1.6580097E5,-1.3119286E5,-1.00196444E6,-7.198625E5,-4.2480688E5,-1.2916495E5,1.4121766E5,4.4870612E5,7.6686806E5,1.0765344E6,1.4170648E5,1.8289447E5,2.2923188E5,2.9740872E5,-1.0800737E5,-9.180835E4,-7.585649E4,-6.2153406E4,-5.166666E4,-3.4993838E5,-1.9719894E5,-6.3600336E4,6.6408164E4,1.982474E5,3.750408E5,5.2974344E4,6.907037E4,8.5665836E4,9.87859E4,1.1449856E5,-3.7869203E4,-3.0145482E4,-2.355217E4,-1.7445049E4,-1.1354281E4,-3.8776028E3,1.00892E4,4.0075818E3,1.7300229E4,2.4881506E4,3.1635678E4,4.0830152E4],"categories":[],"categories_nodes":[],"categories_segments":[],"categories_sizes":[],"default_left":[0,0,0,0,0,0,0,0,0,0,0,0,0,0,0,0,0,0,0,0,0,0,0,0,0,0,0,0,0,0,0,0,0,0,0,0,0,0,0,0,0,0,0,0,0,0,0,0,0,0,0,0,0,0,0,0,0,0,0],"id":1,"left_children":[1,3,5,7,9,11,13,15,17,19,21,23,25,27,29,-1,-1,-1,-1,31,33,35,37,39,41,43,45,-1,-1,-1,-1,-1,-1,-1,-1,-1,47,49,51,53,55,57,-1,-1,-1,-1,-1,-1,-1,-1,-1,-1,-1,-1,-1,-1,-1,-1,-1],"loss_changes":[3.7334336E15,5.4459447E14,6.620491E14,7.904377E13,8.174279E13,9.564654E13,1.0998727E14,7.0430753E12,1.0175851E13,8.4310544E12,1.0359876E13,1.2247049E13,1.0737284E13,1.473912E13,1.4206275E13,0E0,0E0,0E0,0E0,7.2497706E11,3.162757E11,1.627952E12,9.6433445E11,1.1259551E12,1.3235839E12,1.2137477E12,2.1644286E11,0E0,0E0,0E0,0E0,0E0,0E0,0E0,0E0,0E0,9.216564E10,5.2193657E10,1.3569327E11,1.0219743E11,1.4971883E11,1.3823797E11,0E0,0E0,0E0,0E0,0E0,0E0,0E0,0E0,0E0,0E0,0E0,0E0,0E0,0E0,0E0,0E0,0E0],"parents":[2147483647,0,0,1,1,2,2,3,3,4,4,5,5,6,6,7,7,8,8,9,9,10,10,11,11,12,12,13,13,14,14,19,19,20,20,21,21,22,22,23,23,24,24,25,25,26,26,36,36,37,37,38,38,39,39,40,40,41,41],"right_children":[2,4,6,8,10,12,14,16,18,20,22,24,26,28,30,-1,-1,-1,-1,32,34,36,38,40,42,44,46,-1,-1,-1,-1,-1,-1,-1,-1,-1,48,50,52,54,56,58,-1,-1,-1,-1,-1,-1,-1,-1,-1,-1,-1,-1,-1,-1,-1,-1,-1],"split_conditions":[3.916936E6,2.772127E6,5.128923E6,2.099588E6,3.337434E6,4.507336E6,5.933949E6,1.726355E6,2.45909E6,3.072875E6,3.659429E6,4.199993E6,4.82912E6,5.497569E6,6.485177E6,-2.4653045E5,-2.0215356E5,-1.6580097E5,-1.3119286E5,2.92908E6,3.256798E6,3.482885E6,3.778686E6,4.034997E6,4.373844E6,4.69677E6,4.966924E6,1.4170648E5,1.8289447E5,2.2923188E5,2.9740872E5,-1.0800737E5,-9.180835E4,-7.585649E4,-6.2153406E4,-5.166666E4,3.58228E6,3.705842E6,3.828003E6,5.72E2,4.143623E6,4.264866E6,5.2974344E4,6.907037E4,8.5665836E4,9.87859E4,1.1449856E5,-3.7869203E4,-3.0145482E4,-2.355217E4,-1.7445049E4,-1.1354281E4,-3.8776028E3,1.00892E4,4.0075818E3,1.7300229E4,2.4881506E4,3.1635678E4,4.0830152E4],"split_indices":[6,6,6,6,6,6,6,6,6,6,6,6,6,6,6,0,0,0,0,6,6,6,6,6,6,6,6,0,0,0,0,0,0,0,0,0,6,6,6,2,6,6,0,0,0,0,0,0,0,0,0,0,0,0,0,0,0,0,0],"split_type":[0,0,0,0,0,0,0,0,0,0,0,0,0,0,0,0,0,0,0,0,0,0,0,0,0,0,0,0,0,0,0,0,0,0,0,0,0,0,0,0,0,0,0,0,0,0,0,0,0,0,0,0,0,0,0,0,0,0,0],"sum_hessian":[3.209E3,1.605E3,1.604E3,6.58E2,9.47E2,1.004E3,6E2,2.46E2,4.12E2,4.67E2,4.8E2,5.2E2,4.84E2,4.08E2,1.92E2,1.05E2,1.41E2,2.09E2,2.03E2,2.61E2,2.06E2,2.62E2,2.18E2,2.66E2,2.54E2,2.63E2,2.21E2,2.14E2,1.94E2,1.24E2,6.8E1,1.29E2,1.32E2,1.43E2,6.3E1,1.15E2,1.47E2,1.06E2,1.12E2,1.16E2,1.5E2,1.36E2,1.18E2,1.47E2,1.16E2,1.03E2,1.18E2,8.8E1,5.9E1,3.6E1,7E1,3.6E1,7.6E1,4.9E1,6.7E1,1.03E2,4.7E1,5.3E1,8.3E1],"tree_param":{"num_deleted":"0","num_feature":"16","num_nodes":"59","size_leaf_vector":"1"}},{"base_weights":[-2.8935667E3,-9.322365E5,9.9274675E5,-1.568596E6,-4.9097625E5,5.679351E5,1.7666378E6,-1.9438846E6,-1.2983316E6,-7.584333E5,-2.1473211E5,3.110856E5,8.74451E5,1.5397619E6,2.4327142E6,-2.1773825E5,-1.7483302E5,-1.429059E5,-1.1445825E5,-8.760399E5,-6.093332E5,-3.5053E5,-1.0032045E5,1.5579055E5,4.37813E5,7.465598E5,1.0169185E6,1.3403851E6,1.7635644E5,2.234744E5,2.8569238E5,-9.331042E4,-7.762571E4,-6.5035855E4,-5.1095855E4,-4.183939E4,-2.9753994E5,-1.561451E5,-2.5986979E4,9.270506E4,2.0782689E5,3.5936122E5,5.186559E4,6.680943E4,8.096252E4,9.025619E4,1.0592133E5,1.21740836E5,1.4097081E5,-3.0670834E4,-2.2017336E4,-1.8654777E4,-1.1351776E4,-4.560833E3,1.9425522E2,7.1004517E3,1.3366655E4,1.6406166E4,2.3809387E4,3.3390914E4,4.020443E4],"categories":[],"categories_nodes":[],"categories_segments":[],"categories_sizes":[],"default_left":[0,0,0,0,0,0,0,0,0,0,0,0,0,0,0,0,0,0,0,0,0,0,0,0,0,0,0,0,0,0,0,0,0,0,0,0,0,0,0,0,0,0,0,0,0,0,0,0,0,0,0,0,0,0,0,0,0,0,0,0,0],"id":2,"left_children":[1,3,5,7,9,11,13,15,17,19,21,23,25,27,29,-1,-1,-1,-1,31,33,35,37,39,41,43,45,47,-1,-1,-1,-1,-1,-1,-1,-1,49,51,53,55,57,59,-1,-1,-1,-1,-1,-1,-1,-1,-1,-1,-1,-1,-1,-1,-1,-1,-1,-1,-1],"loss_changes":[2.9553804E15,4.6311183E14,5.059411E14,6.6040894E13,7.202127E13,7.822025E13,7.876393E13,9.024062E12,6.323668E12,8.163659E12,7.4536033E12,1.0637787E13,7.5128373E12,1.5930705E13,5.120876E12,0E0,0E0,0E0,0E0,8.415284E11,5.636641E11,6.6665526E11,1.087297E12,7.882864E11,1.7099548E12,6.615676E11,6.937379E10,1.6787282E11,0E0,0E0,0E0,0E0,0E0,0E0,0E0,0E0,2.255487E10,1.7322161E11,6.256232E10,9.095322E10,1.3843982E11,3.4141635E10,0E0,0E0,0E0,0E0,0E0,0E0,0E0,0E0,0E0,0E0,0E0,0E0,0E0,0E0,0E0,0E0,0E0,0E0,0E0],"parents":[2147483647,0,0,1,1,2,2,3,3,4,4,5,5,6,6,7,7,8,8,9,9,10,10,11,11,12,12,13,13,14,14,19,19,20,20,21,21,22,22,23,23,24,24,25,25,26,26,27,27,36,36,37,37,38,38,39,39,40,40,41,41],"right_children":[2,4,6,8,10,12,14,16,18,20,22,24,26,28,30,-1,-1,-1,-1,32,34,36,38,40,42,44,46,48,-1,-1,-1,-1,-1,-1,-1,-1,50,52,54,56,58,60,-1,-1,-1,-1,-1,-1,-1,-1,-1,-1,-1,-1,-1,-1,-1,-1,-1,-1,-1],"split_conditions":[3.958005E6,2.7924E6,5.193774E6,2.168291E6,3.400577E6,4.573566E6,6.073869E6,1.789616E6,2.515648E6,3.120845E6,3.659429E6,4.225929E6,4.881475E6,5.582702E6,6.689801E6,-2.1773825E5,-1.7483302E5,-1.429059E5,-1.1445825E5,2.994166E6,3.305141E6,3.515228E6,3.828003E6,4.07533E6,4.406525E6,4.719002E6,4.966924E6,5.343158E6,1.7635644E5,2.234744E5,2.8569238E5,-9.331042E4,-7.762571E4,-6.5035855E4,-5.1095855E4,-4.183939E4,2.5813084E0,3.75684E6,3.903596E6,4.034997E6,4.143623E6,4.342608E6,5.186559E4,6.680943E4,8.096252E4,9.025619E4,1.0592133E5,1.21740836E5,1.4097081E5,-3.0670834E4,-2.2017336E4,-1.8654777E4,-1.1351776E4,-4.560833E3,1.9425522E2,7.1004517E3,1.3366655E4,1.6406166E4,2.3809387E4,3.3390914E4,4.020443E4],"split_indices":[6,6,6,6,6,6,6,6,6,6,6,6,6,6,6,0,0,0,0,6,6,6,6,6,6,6,6,6,0,0,0,0,0,0,0,0,9,6,6,6,6,6,0,0,0,0,0,0,0,0,0,0,0,0,0,0,0,0,0,0,0],"split_type":[0,0,0,0,0,0,0,0,0,0,0,0,0,0,0,0,0,0,0,0,0,0,0,0,0,0,0,0,0,0,0,0,0,0,0,0,0,0,0,0,0,0,0,0,0,0,0,0,0,0,0,0,0,0,0,0,0,0,0,0,0],"sum_hessian":[3.192E3,1.651E3,1.541E3,6.75E2,9.76E2,9.96E2,5.45E2,2.8E2,3.95E2,4.95E2,4.81E2,5.43E2,4.53E2,4.09E2,1.36E2,1.23E2,1.57E2,2.09E2,1.86E2,2.74E2,2.21E2,2.19E2,2.62E2,2.45E2,2.98E2,2.42E2,2.11E2,2.2E2,1.89E2,9.7E1,3.9E1,1.69E2,1.05E2,1.52E2,6.9E1,9.3E1,1.26E2,1.49E2,1.13E2,1.12E2,1.33E2,1.54E2,1.44E2,1.13E2,1.29E2,6.3E1,1.48E2,8.6E1,1.34E2,1.1E2,1.6E1,8.5E1,6.4E1,6.6E1,4.7E1,7.5E1,3.7E1,5.7E1,7.6E1,1.02E2,5.2E1],"tree_param":{"num_deleted":"0","num_feature":"16","num_nodes":"61","size_leaf_vector":"1"}},{"base_weights":[1.3574355E4,-8.1135225E5,9.012059E5,-1.3824911E6,-4.2379834E5,5.126632E5,1.5701049E6,-1.7160356E6,-1.125859E6,-6.566219E5,-1.7300286E5,2.7937844E5,7.7216206E5,1.3047894E6,2.0296599E6,-1.9455742E5,-1.5342355E5,-1.2323873E5,-9.961181E4,-7.4991875E5,-5.0611016E5,-2.926665E5,-7.284954E4,1.6583853E5,4.118605E5,6.4313556E5,8.913975E5,1.1710437E5,1.4673405E5,1.8286828E5,2.3832125E5,-8.29418E4,-6.8532766E4,-5.5179574E4,-4.446488E4,-3.497712E4,-2.5022831E5,-1.2636541E5,-4.865349E3,1.1061316E5,2.3202002E5,3.5733145E4,4.8174785E4,5.8308875E4,6.9550125E4,8.336219E4,9.718929E4,-9.306226E3,-2.532558E4,-1.5972138E4,-9.984408E3,2.937636E3,-3.0346248E3,7.5777603E3,1.3656953E4,1.9022943E4,2.544748E4],"categories":[],"categories_nodes":[],"categories_segments":[],"categories_sizes":[],"default_left":[0,0,0,0,0,0,0,0,0,0,0,0,0,0,0,0,0,0,0,0,0,0,0,0,0,0,0,0,0,0,0,0,0,0,0,0,0,0,0,0,0,0,0,0,0,0,0,0,0,0,0,0,0,0,0,0,0],"id":3,"left_children":[1,3,5,7,9,11,13,15,17,19,21,23,25,27,29,-1,-1,-1,-1,31,33,35,37,39,41,43,45,-1,-1,-1,-1,-1,-1,-1,-1,-1,47,49,51,53,55,-1,-1,-1,-1,-1,-1,-1,-1,-1,-1,-1,-1,-1,-1,-1,-1],"loss_changes":[2.3394767E15,3.659649E14,3.991748E14,5.533327E13,5.7576805E13,5.8807984E13,6.6240475E13,9.075065E12,4.0381752E12,6.810107E12,5.6953856E12,7.6783236E12,6.5189886E12,6.130059E12,1.0208332E13,0E0,0E0,0E0,0E0,1.04396227E12,3.1341937E11,4.383614E11,9.48964E11,9.9405215E11,7.310378E11,3.0195633E11,2.9200744E11,0E0,0E0,0E0,0E0,0E0,0E0,0E0,0E0,0E0,3.7336646E10,1.1321082E11,1.0210256E11,1.2889856E11,6.982992E10,0E0,0E0,0E0,0E0,0E0,0E0,0E0,0E0,0E0,0E0,0E0,0E0,0E0,0E0,0E0,0E0],"parents":[2147483647,0,0,1,1,2,2,3,3,4,4,5,5,6,6,7,7,8,8,9,9,10,10,11,11,12,12,13,13,14,14,19,19,20,20,21,21,22,22,23,23,24,24,25,25,26,26,36,36,37,37,38,38,39,39,40,40],"right_children":[2,4,6,8,10,12,14,16,18,20,22,24,26,28,30,-1,-1,-1,-1,32,34,36,38,40,42,44,46,-1,-1,-1,-1,-1,-1,-1,-1,-1,48,50,52,54,56,-1,-1,-1,-1,-1,-1,-1,-1,-1,-1,-1,-1,-1,-1,-1,-1],"split_conditions":[3.970231E6,2.816561E6,5.17322E6,2.227186E6,3.436775E6,4.557174E6,5.912097E6,1.836931E6,2.566062E6,3.183824E6,3.691975E6,4.264866E6,4.82912E6,5.520171E6,6.390126E6,-1.9455742E5,-1.5342355E5,-1.2323873E5,-9.961181E4,2.994166E6,3.319731E6,3.541385E6,3.84289E6,4.127348E6,4.435515E6,4.69677E6,5.031911E6,1.1710437E5,1.4673405E5,1.8286828E5,2.3832125E5,-8.29418E4,-6.8532766E4,-5.5179574E4,-4.446488E4,-3.497712E4,1.9E1,3.75684E6,5.81E2,4.034997E6,4.183984E6,3.5733145E4,4.8174785E4,5.8308875E4,6.9550125E4,8.336219E4,9.718929E4,-9.306226E3,-2.532558E4,-1.5972138E4,-9.984408E3,2.937636E3,-3.0346248E3,7.5777603E3,1.3656953E4,1.9022943E4,2.544748E4],"split_indices":[6,6,6,6,6,6,6,6,6,6,6,6,6,6,6,0,0,0,0,6,6,6,6,6,6,6,6,0,0,0,0,0,0,0,0,0,1,6,2,6,6,0,0,0,0,0,0,0,0,0,0,0,0,0,0,0,0],"split_type":[0,0,0,0,0,0,0,0,0,0,0,0,0,0,0,0,0,0,0,0,0,0,0,0,0,0,0,0,0,0,0,0,0,0,0,0,0,0,0,0,0,0,0,0,0,0,0,0,0,0,0,0,0,0,0,0,0],"sum_hessian":[3.193E3,1.655E3,1.538E3,6.68E2,9.87E2,9.74E2,5.64E2,2.88E2,3.8E2,5.11E2,4.76E2,5.14E2,4.6E2,3.6E2,2.04E2,1.23E2,1.65E2,2.04E2,1.76E2,3.13E2,1.98E2,2.16E2,2.6E2,2.78E2,2.36E2,2.24E2,2.36E2,2.02E2,1.58E2,1.34E2,7E1,1.35E2,1.78E2,1.09E2,8.9E1,8.9E1,1.27E2,1.45E2,1.15E2,1.53E2,1.25E2,1.36E2,1E2,1.1E2,1.14E2,1.44E2,9.2E1,3E0,1.24E2,6.2E1,8.3E1,4.9E1,6.6E1,6.7E1,8.6E1,4.7E1,7.8E1],"tree_param":{"num_deleted":"0","num_feature":"16","num_nodes":"57","size_leaf_vector":"1"}},{"base_weights":[-1.0043665E3,-7.962321E5,7.8039394E5,-1.3385409E6,-4.536068E5,4.1953075E5,1.4052188E6,-1.679476E6,-1.1536465E6,-6.8755706E5,-2.2909981E5,1.9742394E5,6.5192444E5,1.1504244E6,1.8273492E6,-1.9041814E5,-1.5585812E5,-1.2734624E5,-1.022443E5,-7.950274E5,-5.715643E5,-3.403406E5,-1.1959851E5,1.0555725E5,3.1530656E5,5.231158E5,7.6278644E5,1.0175685E5,1.2895408E5,1.6021486E5,2.1289838E6,-8.326543E4,-7.175552E4,-6.261528E4,-5.2231934E4,-4.028319E4,-2.713678E4,-1.7769014E5,-7.032216E4,4.6285434E4,1.4861394E5,2.7124172E5,3.65661E4,4.4979156E4,5.6745414E4,6.783812E4,8.087609E4,1.9646328E5,2.4642988E5,-9.492213E3,-1.8553174E4,-9.746767E3,-3.645897E3,2.552518E3,7.5338003E3,1.2488556E4,1.8188074E4,2.810335E4,2.17917E4],"categories":[],"categories_nodes":[],"categories_segments":[],"categories_sizes":[],"default_left":[0,0,0,0,0,0,0,0,0,0,0,0,0,0,0,0,0,0,0,0,0,0,0,0,0,0,0,0,0,0,0,0,0,0,0,0,0,0,0,0,0,0,0,0,0,0,0,0,0,0,0,0,0,0,0,0,0,0,0],"id":4,"left_children":[1,3,5,7,9,11,13,15,17,19,21,23,25,27,29,-1,-1,-1,-1,31,33,35,37,39,41,43,45,-1,-1,-1,47,-1,-1,-1,-1,-1,-1,49,51,53,55,57,-1,-1,-1,-1,-1,-1,-1,-1,-1,-1,-1,-1,-1,-1,-1,-1,-1],"loss_changes":[1.9834758E15,2.9334224E14,3.6242726E14,3.6641104E13,5.0842766E13,5.2623063E13,6.1248515E13,2.818438E12,4.986088E12,5.4668223E12,6.013256E12,5.641366E12,6.7266905E12,5.5263143E12,1.1533262E13,0E0,0E0,0E0,0E0,1.1379986E11,2.966128E11,9.509976E11,7.088657E11,7.485273E11,4.0893625E11,5.055101E11,4.835697E11,0E0,0E0,0E0,1.7354352E11,0E0,0E0,0E0,0E0,0E0,0E0,5.7027854E10,1.2330061E11,7.407247E10,1.1226736E11,4.547674E9,0E0,0E0,0E0,0E0,0E0,0E0,0E0,0E0,0E0,0E0,0E0,0E0,0E0,0E0,0E0,0E0,0E0],"parents":[2147483647,0,0,1,1,2,2,3,3,4,4,5,5,6,6,7,7,8,8,9,9,10,10,11,11,12,12,13,13,14,14,19,19,20,20,21,21,22,22,23,23,24,24,25,25,26,26,30,30,37,37,38,38,39,39,40,40,41,41],"right_children":[2,4,6,8,10,12,14,16,18,20,22,24,26,28,30,-1,-1,-1,-1,32,34,36,38,40,42,44,46,-1,-1,-1,48,-1,-1,-1,-1,-1,-1,50,52,54,56,58,-1,-1,-1,-1,-1,-1,-1,-1,-1,-1,-1,-1,-1,-1,-1,-1,-1],"split_conditions":[3.903596E6,2.664146E6,5.128923E6,2.001744E6,3.286537E6,4.478619E6,5.865241E6,1.613307E6,2.382589E6,2.994166E6,3.616671E6,4.215121E6,4.770427E6,5.461587E6,6.318071E6,-1.9041814E5,-1.5585812E5,-1.2734624E5,-1.022443E5,2.891034E6,3.138232E6,3.474327E6,3.744254E6,4.034997E6,4.36016E6,4.588291E6,4.895945E6,1.0175685E5,1.2895408E5,1.6021486E5,6.807419E6,-8.326543E4,-7.175552E4,-6.261528E4,-5.2231934E4,-4.028319E4,-2.713678E4,4.57E2,3.828003E6,3.982857E6,4.143623E6,7.59E2,3.65661E4,4.4979156E4,5.6745414E4,6.783812E4,8.087609E4,1.9646328E5,2.4642988E5,-9.492213E3,-1.8553174E4,-9.746767E3,-3.645897E3,2.552518E3,7.5338003E3,1.2488556E4,1.8188074E4,2.810335E4,2.17917E4],"split_indices":[6,6,6,6,6,6,6,6,6,6,6,6,6,6,6,0,0,0,0,6,6,6,6,6,6,6,6,0,0,0,6,0,0,0,0,0,0,2,6,6,6,2,0,0,0,0,0,0,0,0,0,0,0,0,0,0,0,0,0],"split_type":[0,0,0,0,0,0,0,0,0,0,0,0,0,0,0,0,0,0,0,0,0,0,0,0,0,0,0,0,0,0,0,0,0,0,0,0,0,0,0,0,0,0,0,0,0,0,0,0,0,0,0,0,0,0,0,0,0,0,0],"sum_hessian":[3.19E3,1.581E3,1.609E3,6.11E2,9.7E2,1.021E3,5.88E2,2.12E2,3.99E2,4.74E2,4.96E2,5.23E2,4.98E2,3.69E2,2.19E2,6.9E1,1.43E2,2.04E2,1.95E2,2.43E2,2.31E2,2.45E2,2.51E2,2.95E2,2.28E2,2.33E2,2.65E2,1.93E2,1.76E2,1.29E2,9E1,1.57E2,8.6E1,1.04E2,1.27E2,1.26E2,1.19E2,1.14E2,1.37E2,1.25E2,1.7E2,1.25E2,1.03E2,9.2E1,1.41E2,9.9E1,1.66E2,6.5E1,2.5E1,1.1E1,1.03E2,7.5E1,6.2E1,7.4E1,5.1E1,1.02E2,6.8E1,1.02E2,2.3E1],"tree_param":{"num_deleted":"0","num_feature":"16","num_nodes":"59","size_leaf_vector":"1"}},{"base_weights":[9.99692E3,-6.996043E5,7.11688E5,-1.1851186E6,-3.865195E5,4.0546253E5,1.2995944E6,-1.4989862E6,-1.01254856E6,-5.8129894E5,-1.827629E5,2.0927783E5,6.4012756E5,1.1357664E6,1.7984414E6,-1.7633417E5,-1.406666E5,-1.1371723E5,-9.0565875E4,-6.759498E5,-4.7202912E5,-2.6764197E5,-9.044652E4,1.11677086E5,3.22065E5,5.437089E5,7.4511906E5,1.00325394E6,1.3147936E5,1.6624658E5,2.0696423E5,-7.239661E4,-6.132202E4,-5.1437277E4,-4.229449E4,-3.3495934E4,-2.2292203E5,-1.28473484E5,-5.062547E4,6.0490684E4,1.6150873E5,2.6522684E5,3.799157E4,5.0354797E4,6.064706E4,6.851577E4,7.9036734E4,8.962436E4,1.0469656E5,-2.4925928E4,-1.9610277E4,-1.4146194E4,-1.0191168E4,-7.281578E3,-2.462113E3,3.5812368E3,8.953075E3,1.3145258E4,1.8708416E4,2.2971768E4,2.838103E4],"categories":[],"categories_nodes":[],"categories_segments":[],"categories_sizes":[],"default_left":[0,0,0,0,0,0,0,0,0,0,0,0,0,0,0,0,0,0,0,0,0,0,0,0,0,0,0,0,0,0,0,0,0,0,0,0,0,0,0,0,0,0,0,0,0,0,0,0,0,0,0,0,0,0,0,0,0,0,0,0,0],"id":5,"left_children":[1,3,5,7,9,11,13,15,17,19,21,23,25,27,29,-1,-1,-1,-1,31,33,35,37,39,41,43,45,47,-1,-1,-1,-1,-1,-1,-1,-1,49,51,53,55,57,59,-1,-1,-1,-1,-1,-1,-1,-1,-1,-1,-1,-1,-1,-1,-1,-1,-1,-1,-1],"loss_changes":[1.6003177E15,2.4244936E14,2.904046E14,3.2388952E13,3.8509784E13,4.885012E13,4.3151335E13,2.8888017E12,4.3917718E12,4.8211343E12,3.7134344E12,6.3597456E12,4.494482E12,8.6209724E12,1.5376654E12,0E0,0E0,0E0,0E0,3.5123102E11,2.6879617E11,6.719149E11,3.417789E11,7.8860046E11,7.8374345E11,3.3988123E11,7.977566E10,2.0766838E11,0E0,0E0,0E0,0E0,0E0,0E0,0E0,0E0,5.8483802E10,2.5948193E10,6.3990235E10,1.0859263E11,9.686168E10,2.6527924E10,0E0,0E0,0E0,0E0,0E0,0E0,0E0,0E0,0E0,0E0,0E0,0E0,0E0,0E0,0E0,0E0,0E0,0E0,0E0],"parents":[2147483647,0,0,1,1,2,2,3,3,4,4,5,5,6,6,7,7,8,8,9,9,10,10,11,11,12,12,13,13,14,14,19,19,20,20,21,21,22,22,23,23,24,24,25,25,26,26,27,27,36,36,37,37,38,38,39,39,40,40,41,41],"right_children":[2,4,6,8,10,12,14,16,18,20,22,24,26,28,30,-1,-1,-1,-1,32,34,36,38,40,42,44,46,48,-1,-1,-1,-1,-1,-1,-1,-1,50,52,54,56,58,60,-1,-1,-1,-1,-1,-1,-1,-1,-1,-1,-1,-1,-1,-1,-1,-1,-1,-1,-1],"split_conditions":[3.916936E6,2.716422E6,5.209475E6,2.044553E6,3.350632E6,4.573566E6,6.142157E6,1.540417E6,2.382589E6,3.057886E6,3.659429E6,4.234885E6,4.881475E6,5.641629E6,6.689801E6,-1.7633417E5,-1.406666E5,-1.1371723E5,-9.0565875E4,2.916186E6,3.206615E6,3.482885E6,3.778686E6,4.07533E6,4.406525E6,4.770427E6,5.012992E6,5.343158E6,1.3147936E5,1.6624658E5,2.0696423E5,-7.239661E4,-6.132202E4,-5.1437277E4,-4.229449E4,-3.3495934E4,3.568479E6,3.744254E6,3.857873E6,4.005169E6,4.16107E6,4.293437E6,3.799157E4,5.0354797E4,6.064706E4,6.851577E4,7.9036734E4,8.962436E4,1.0469656E5,-2.4925928E4,-1.9610277E4,-1.4146194E4,-1.0191168E4,-7.281578E3,-2.462113E3,3.5812368E3,8.953075E3,1.3145258E4,1.8708416E4,2.2971768E4,2.838103E4],"split_indices":[6,6,6,6,6,6,6,6,6,6,6,6,6,6,6,0,0,0,0,6,6,6,6,6,6,6,6,6,0,0,0,0,0,0,0,0,6,6,6,6,6,6,0,0,0,0,0,0,0,0,0,0,0,0,0,0,0,0,0,0,0],"split_type":[0,0,0,0,0,0,0,0,0,0,0,0,0,0,0,0,0,0,0,0,0,0,0,0,0,0,0,0,0,0,0,0,0,0,0,0,0,0,0,0,0,0,0,0,0,0,0,0,0,0,0,0,0,0,0,0,0,0,0,0,0],"sum_hessian":[3.212E3,1.597E3,1.615E3,6.25E2,9.72E2,1.063E3,5.52E2,2.19E2,4.06E2,4.96E2,4.76E2,5.8E2,4.83E2,4.18E2,1.34E2,5.2E1,1.67E2,1.83E2,2.23E2,2.63E2,2.33E2,2.47E2,2.29E2,3.12E2,2.68E2,2.55E2,2.28E2,2.44E2,1.74E2,9.4E1,4E1,1.43E2,1.2E2,1.2E2,1.13E2,9.6E1,1.51E2,1.16E2,1.13E2,1.55E2,1.57E2,1.38E2,1.3E2,1.61E2,9.4E1,1.05E2,1.23E2,7.7E1,1.67E2,7.2E1,7.9E1,7.5E1,4.1E1,6E1,5.3E1,8.5E1,7E1,7.5E1,8.2E1,5.2E1,8.6E1],"tree_param":{"num_deleted":"0","num_feature":"16","num_nodes":"61","size_leaf_vector":"1"}},{"base_weights":[6.3124138E1,-5.53207E5,5.2857006E5,-8.309235E5,-2.346192E5,7.562191E4,6.891458E5,-1.0036817E6,-6.9308406E5,-4.106766E5,-5.9844914E4,3.10195E5,-4.3164574E4,5.1696247E5,9.1849994E5,-1.1291686E6,-9.1946694E5,-6.4034825E5,-9.186567E5,-2.543592E5,-5.360219E5,-2.3814728E5,6.79126E4,4.0551344E5,-3.609186E4,-1.8080864E5,6.3970035E4,4.0499194E5,7.67514E5,7.077105E5,1.0970565E6,-1.159165E5,-7.6997695E4,-1.03629925E6,-8.228339E5,-7.63536E5,-5.579409E5,-5.1631402E4,-9.4237844E5,-3.6513212E5,-1.3486817E5,-6.265541E5,-4.0354222E5,-9.4851805E4,-3.4868153E5,-1.2337088E5,2.0774231E5,2.1052017E5,5.0947522E5,-3.6791666E2,-3.8130066E4,-5.480121E5,-1.543812E5,-5.9206645E4,2.8975216E5,4.5768566E5,9.574219E4,4.9534466E5,8.5512175E5,8.557303E5,4.3926522E5,1.1716679E6,7.2597394E5,-1.0417408E5,-2.5423676E4,-7.062754E4,-9.216271E4,-6.582728E4,-8.841118E4,-3.9172953E4,-6.428434E4,-1.0501739E5,-8.142274E4,-4.6596496E4,-2.1774488E4,-6.1457925E3,-4.7655523E4,-5.682575E4,-8.8087984E4,-4.1372805E4,2.2094025E4,-2.078013E4,2.4209485E3,-4.4637734E4,-1.6987053E4,-1.4950865E3,-3.327338E4,3.0133654E4,-4.8869995E3,3.1389588E4,7.430117E3,5.809405E4,2.910453E4,-1.3573828E4,1.4405167E4,-6.586968E4,1.1339025E4,-1.2230396E4,-4.5528684E4,2.4393162E3,-2.0724824E4,4.955534E4,1.8989781E4,2.0555873E4,5.4078465E4,2.1781209E4,-4.3072812E2,1.886069E4,5.784934E4,9.091509E4,4.7734207E4,9.288197E4,4.4436016E4,5.0092766E4,8.195905E3,8.7146734E4,1.3428178E5,3.7294824E4,7.759318E4],"categories":[],"categories_nodes":[],"categories_segments":[],"categories_sizes":[],"default_left":[0,0,0,0,0,0,0,0,0,0,0,0,0,0,0,0,0,0,0,0,0,0,0,0,0,0,0,0,0,0,0,0,0,0,0,0,0,0,0,0,0,0,0,0,0,0,0,0,0,0,0,0,0,0,0,0,0,0,0,0,0,0,0,0,0,0,0,0,0,0,0,0,0,0,0,0,0,0,0,0,0,0,0,0,0,0,0,0,0,0,0,0,0,0,0,0,0,0,0,0,0,0,0,0,0,0,0,0,0,0,0,0,0,0,0,0,0,0,0],"id":6,"left_children":[1,3,5,7,9,11,13,15,17,19,21,23,25,27,29,31,33,35,37,39,41,43,45,47,49,51,53,55,57,59,61,-1,-1,63,65,67,69,-1,71,73,75,77,79,81,83,85,87,89,91,93,-1,95,97,99,101,103,105,107,109,111,113,115,117,-1,-1,-1,-1,-1,-1,-1,-1,-1,-1,-1,-1,-1,-1,-1,-1,-1,-1,-1,-1,-1,-1,-1,-1,-1,-1,-1,-1,-1,-1,-1,-1,-1,-1,-1,-1,-1,-1,-1,-1,-1,-1,-1,-1,-1,-1,-1,-1,-1,-1,-1,-1,-1,-1,-1,-1],"loss_changes":[9.3248626E14,1.3765239E14,1.18574585E14,1.911663E13,2.2345431E13,1.1939229E13,4.7072305E13,2.840215E12,4.955151E12,6.9565636E12,8.3534587E12,4.767718E12,4.2143027E12,1.9046687E13,1.8607073E13,6.482045E11,1.6875027E12,3.4417452E12,3.3425247E11,2.1082837E12,2.1458856E12,2.3903024E12,5.749511E12,2.1834645E12,3.9449077E11,1.1284277E12,4.4947415E12,7.7617357E12,4.6313756E12,9.120816E12,6.818697E12,0E0,0E0,1.522029E11,8.230231E11,1.3218433E12,3.022105E12,0E0,2.5004763E11,1.146902E12,1.9773785E12,1.2341152E12,6.2572095E11,9.194888E11,1.4265142E12,2.0606458E12,2.992888E12,5.540285E11,9.704613E11,6.0605727E11,0E0,6.6034677E11,1.08327915E12,1.3045615E12,1.0772535E12,8.458007E12,8.680631E11,1.2681541E12,2.8114E12,4.1874925E12,1.8757609E12,1.0595651E13,5.748042E11,0E0,0E0,0E0,0E0,0E0,0E0,0E0,0E0,0E0,0E0,0E0,0E0,0E0,0E0,0E0,0E0,0E0,0E0,0E0,0E0,0E0,0E0,0E0,0E0,0E0,0E0,0E0,0E0,0E0,0E0,0E0,0E0,0E0,0E0,0E0,0E0,0E0,0E0,0E0,0E0,0E0,0E0,0E0,0E0,0E0,0E0,0E0,0E0,0E0,0E0,0E0,0E0,0E0,0E0,0E0,0E0],"parents":[2147483647,0,0,1,1,2,2,3,3,4,4,5,5,6,6,7,7,8,8,9,9,10,10,11,11,12,12,13,13,14,14,15,15,16,16,17,17,18,18,19,19,20,20,21,21,22,22,23,23,24,24,25,25,26,26,27,27,28,28,29,29,30,30,33,33,34,34,35,35,36,36,38,38,39,39,40,40,41,41,42,42,43,43,44,44,45,45,46,46,47,47,48,48,49,49,51,51,52,52,53,53,54,54,55,55,56,56,57,57,58,58,59,59,60,60,61,61,62,62],"right_children":[2,4,6,8,10,12,14,16,18,20,22,24,26,28,30,32,34,36,38,40,42,44,46,48,50,52,54,56,58,60,62,-1,-1,64,66,68,70,-1,72,74,76,78,80,82,84,86,88,90,92,94,-1,96,98,100,102,104,106,108,110,112,114,116,118,-1,-1,-1,-1,-1,-1,-1,-1,-1,-1,-1,-1,-1,-1,-1,-1,-1,-1,-1,-1,-1,-1,-1,-1,-1,-1,-1,-1,-1,-1,-1,-1,-1,-1,-1,-1,-1,-1,-1,-1,-1,-1,-1,-1,-1,-1,-1,-1,-1,-1,-1,-1,-1,-1,-1,-1],"split_conditions":[1E1,2.4E1,3.3E1,7E0,2.9E1,1.6438356E-2,2.022E3,2.021E3,1E0,5.0984938E-2,9E0,1E0,1.1E1,4.5E1,4.1E1,2.1E1,6E0,2.021E3,1.5604681E-2,9E0,2.022E3,5.7401814E-2,2.021E3,2.021E3,4.72973E-2,5.34E2,2.022E3,1E0,1.2E1,1.5810277E-2,1E0,-1.159165E5,-7.6997695E4,1.481E3,1.6771488E-2,1.923077E-2,1.7766498E-2,-5.1631402E4,8E0,2.022E3,1E0,1E0,1.477E3,1.018E3,2.022E3,1.584786E-2,1.6034985E-2,4.264706E-2,1E0,3.1E1,-3.8130066E4,2.023E3,2.3178808E-2,2.0618556E-2,1.793722E-2,1.1E1,1.4662757E-2,1.1E1,1E0,1E0,6.4177364E-2,1.2E1,6.17E2,-1.0417408E5,-2.5423676E4,-7.062754E4,-9.216271E4,-6.582728E4,-8.841118E4,-3.9172953E4,-6.428434E4,-1.0501739E5,-8.142274E4,-4.6596496E4,-2.1774488E4,-6.1457925E3,-4.7655523E4,-5.682575E4,-8.8087984E4,-4.1372805E4,2.2094025E4,-2.078013E4,2.4209485E3,-4.4637734E4,-1.6987053E4,-1.4950865E3,-3.327338E4,3.0133654E4,-4.8869995E3,3.1389588E4,7.430117E3,5.809405E4,2.910453E4,-1.3573828E4,1.4405167E4,-6.586968E4,1.1339025E4,-1.2230396E4,-4.5528684E4,2.4393162E3,-2.0724824E4,4.955534E4,1.8989781E4,2.0555873E4,5.4078465E4,2.1781209E4,-4.3072812E2,1.886069E4,5.784934E4,9.091509E4,4.7734207E4,9.288197E4,4.4436016E4,5.0092766E4,8.195905E3,8.7146734E4,1.3428178E5,3.7294824E4,7.759318E4],"split_indices":[3,1,1,3,1,8,0,0,10,7,3,10,3,1,1,1,3,0,8,3,0,7,0,0,7,4,0,10,3,8,10,0,0,4,8,8,8,0,3,0,10,10,4,4,0,8,8,7,13,1,0,0,8,8,8,3,8,3,10,10,7,3,4,0,0,0,0,0,0,0,0,0,0,0,0,0,0,0,0,0,0,0,0,0,0,0,0,0,0,0,0,0,0,0,0,0,0,0,0,0,0,0,0,0,0,0,0,0,0,0,0,0,0,0,0,0,0,0,0],"split_type":[0,0,0,0,0,0,0,0,0,0,0,0,0,0,0,0,0,0,0,0,0,0,0,0,0,0,0,0,0,0,0,0,0,0,0,0,0,0,0,0,0,0,0,0,0,0,0,0,0,0,0,0,0,0,0,0,0,0,0,0,0,0,0,0,0,0,0,0,0,0,0,0,0,0,0,0,0,0,0,0,0,0,0,0,0,0,0,0,0,0,0,0,0,0,0,0,0,0,0,0,0,0,0,0,0,0,0,0,0,0,0,0,0,0,0,0,0,0,0],"sum_hessian":[3.187E3,1.557E3,1.63E3,8.31E2,7.26E2,4.27E2,1.203E3,3.66E2,4.65E2,3.61E2,3.65E2,1.43E2,2.84E2,6.89E2,5.14E2,1.42E2,2.24E2,3.8E2,8.5E1,1.62E2,1.99E2,1.52E2,2.13E2,1.12E2,3.1E1,1.24E2,1.6E2,4.78E2,2.11E2,2.38E2,2.76E2,1.29E2,1.3E1,9.7E1,1.27E2,1.49E2,2.31E2,6E0,7.9E1,8.3E1,7.9E1,1.16E2,8.3E1,6.7E1,8.5E1,9E1,1.23E2,4E1,7.2E1,2.9E1,2E0,7E0,1.17E2,1.04E2,5.6E1,4.08E2,7E1,5.3E1,1.58E2,1.52E2,8.6E1,2.28E2,4.8E1,9.6E1,1E0,6.2E1,6.5E1,8.3E1,6.6E1,8E1,1.51E2,3.9E1,4E1,4.8E1,3.5E1,6.6E1,1.3E1,9.7E1,1.9E1,8.2E1,1E0,3.4E1,3.3E1,5.4E1,3.1E1,6E1,3E1,9E1,3.3E1,2.2E1,1.8E1,5.3E1,1.9E1,1.5E1,1.4E1,6E0,1E0,1.07E2,1E1,6.7E1,3.7E1,1.7E1,3.9E1,1.02E2,3.06E2,3.1E1,3.9E1,1.2E1,4.1E1,1.37E2,2.1E1,1.28E2,2.4E1,7.3E1,1.3E1,8.5E1,1.43E2,7E0,4.1E1],"tree_param":{"num_deleted":"0","num_feature":"16","num_nodes":"119","size_leaf_vector":"1"}},{"base_weights":[1.3313065E3,-5.59019E5,5.981469E5,-9.5854075E5,-2.9651072E5,3.4676438E5,1.1021885E6,-1.2204335E6,-8.08118E5,-4.5067338E5,-1.3154286E5,1.8691442E5,5.34037E5,9.596697E5,1.5695858E6,-1.4316064E5,-1.1357468E5,-8.9318394E5,-6.946197E4,-5.3086744E5,-3.6586353E5,-2.0649995E5,-5.7578605E4,1.0769079E5,2.769151E5,4.542836E5,6.367501E4,8.5751694E5,1.14179766E5,1.4667711E5,2.065003E5,-9.598779E4,-8.2520336E4,-5.701334E4,-4.836486E4,-3.9564394E5,-3.1096444E5,-2.4863945E5,-1.6768539E5,-1.4218664E4,-9.222577E4,8.081412E4,1.6853048E5,2.2113045E5,3.128148E5,4.1773506E5,5.084347E4,7.806396E4,9.073323E4,-3.3340184E4,-4.27456E4,-2.4208164E4,-3.311231E4,-2.2139152E4,-3.1069232E4,-1.3323846E4,-2.1242307E4,-5.8781143E3,1.7536608E3,-1.2906886E4,-4.3406714E3,1.2747297E4,5.5546646E3,2.236884E4,1.3630408E4,2.872289E4,2.0434637E4,3.3444086E4,2.550849E4,4.4680996E4,3.8179297E4],"categories":[],"categories_nodes":[],"categories_segments":[],"categories_sizes":[],"default_left":[0,0,0,0,0,0,0,0,0,0,0,0,0,0,0,0,0,0,0,0,0,0,0,0,0,0,0,0,0,0,0,0,0,0,0,0,0,0,0,0,0,0,0,0,0,0,0,0,0,0,0,0,0,0,0,0,0,0,0,0,0,0,0,0,0,0,0,0,0,0,0],"id":7,"left_children":[1,3,5,7,9,11,13,15,17,19,21,23,25,27,29,-1,-1,31,-1,33,35,37,39,41,43,45,-1,47,-1,-1,-1,-1,-1,-1,-1,49,51,53,55,57,59,61,63,65,67,69,-1,-1,-1,-1,-1,-1,-1,-1,-1,-1,-1,-1,-1,-1,-1,-1,-1,-1,-1,-1,-1,-1,-1,-1,-1],"loss_changes":[1.0718345E15,1.7307873E14,1.9626742E14,2.4817193E13,2.5347177E13,3.0943327E13,3.286603E13,2.6124474E12,3.424968E12,3.3152114E12,2.6714754E12,3.9702086E12,3.6181828E12,6.4256066E12,3.0325153E12,0E0,0E0,2.7791458E11,0E0,2.1188785E11,2.9223813E11,3.5085668E11,3.6675204E11,4.7693116E11,4.555224E11,3.2593517E11,0E0,2.8358528E11,0E0,0E0,0E0,0E0,0E0,0E0,0E0,1.7627401E11,5.036835E10,1.2227759E11,1.6895469E11,1.5669112E11,2.3901307E11,2.404989E11,1.3126651E11,5.890271E10,1.1069817E11,4.9744445E9,0E0,0E0,0E0,0E0,0E0,0E0,0E0,0E0,0E0,0E0,0E0,0E0,0E0,0E0,0E0,0E0,0E0,0E0,0E0,0E0,0E0,0E0,0E0,0E0,0E0],"parents":[2147483647,0,0,1,1,2,2,3,3,4,4,5,5,6,6,7,7,8,8,9,9,10,10,11,11,12,12,13,13,14,14,17,17,19,19,20,20,21,21,22,22,23,23,24,24,25,25,27,27,35,35,36,36,37,37,38,38,39,39,40,40,41,41,42,42,43,43,44,44,45,45],"right_children":[2,4,6,8,10,12,14,16,18,20,22,24,26,28,30,-1,-1,32,-1,34,36,38,40,42,44,46,-1,48,-1,-1,-1,-1,-1,-1,-1,50,52,54,56,58,60,62,64,66,68,70,-1,-1,-1,-1,-1,-1,-1,-1,-1,-1,-1,-1,-1,-1,-1,-1,-1,-1,-1,-1,-1,-1,-1,-1,-1],"split_conditions":[3.958005E6,2.772127E6,5.24077E6,2.099588E6,3.400577E6,4.588291E6,6.192497E6,1.613307E6,2.496314E6,3.092371E6,3.691975E6,4.276604E6,4.928382E6,5.734932E6,7.034884E6,-1.4316064E5,-1.1357468E5,2.29127E6,-6.946197E4,2.941026E6,3.286537E6,3.541385E6,5.77E2,4.183984E6,4.406525E6,4.78611E6,6.367501E4,5.404853E6,1.14179766E5,1.4667711E5,2.065003E5,-9.598779E4,-8.2520336E4,-5.701334E4,-4.836486E4,4.54E2,4.43E2,5.85E2,5.88E2,3.778686E6,3.84289E6,5.94E2,1E1,5.85E2,7.75E2,7.31E2,5.084347E4,7.806396E4,9.073323E4,-3.3340184E4,-4.27456E4,-2.4208164E4,-3.311231E4,-2.2139152E4,-3.1069232E4,-1.3323846E4,-2.1242307E4,-5.8781143E3,1.7536608E3,-1.2906886E4,-4.3406714E3,1.2747297E4,5.5546646E3,2.236884E4,1.3630408E4,2.872289E4,2.0434637E4,3.3444086E4,2.550849E4,4.4680996E4,3.8179297E4],"split_indices":[6,6,6,6,6,6,6,6,6,6,6,6,6,6,6,0,0,6,0,6,6,6,2,6,6,6,0,6,0,0,0,0,0,0,0,2,2,2,2,6,6,2,3,2,2,2,0,0,0,0,0,0,0,0,0,0,0,0,0,0,0,0,0,0,0,0,0,0,0,0,0],"split_type":[0,0,0,0,0,0,0,0,0,0,0,0,0,0,0,0,0,0,0,0,0,0,0,0,0,0,0,0,0,0,0,0,0,0,0,0,0,0,0,0,0,0,0,0,0,0,0,0,0,0,0,0,0,0,0,0,0,0,0,0,0,0,0,0,0,0,0,0,0,0,0],"sum_hessian":[3.203E3,1.652E3,1.551E3,6.54E2,9.98E2,1.036E3,5.15E2,2.36E2,4.18E2,5.15E2,4.83E2,5.6E2,4.76E2,3.97E2,1.18E2,6.3E1,1.73E2,2.35E2,1.83E2,2.62E2,2.53E2,2.39E2,2.44E2,2.99E2,2.61E2,2.71E2,2.05E2,2.58E2,1.39E2,1.01E2,1.7E1,1.12E2,1.23E2,1.37E2,1.25E2,1.6E2,9.3E1,1.12E2,1.27E2,1.09E2,1.35E2,2.09E2,9E1,1.05E2,1.56E2,1.67E2,1.04E2,1.08E2,1.5E2,5.8E1,1.02E2,2.4E1,6.9E1,8.1E1,3.1E1,7.4E1,5.3E1,4.5E1,6.4E1,7.6E1,5.9E1,7.2E1,1.37E2,3.1E1,5.9E1,1.8E1,8.7E1,1.1E2,4.6E1,8.6E1,8.1E1],"tree_param":{"num_deleted":"0","num_feature":"16","num_nodes":"71","size_leaf_vector":"1"}},{"base_weights":[-2.600479E3,-5.229335E5,5.2551E5,-8.852131E5,-2.8964316E5,2.9942978E5,9.8264144E5,-1.1534164E6,-7.62788E5,-4.4421578E5,-1.5486458E5,1.5954494E5,4.801346E5,8.360456E5,1.3460214E6,-1.3701428E5,-1.086284E5,-8.750021E4,-6.884784E5,-5.144076E5,-3.77145E5,-2.3431312E5,-8.360056E4,7.8816086E4,2.4054653E5,4.0497797E5,5.5780025E5,7.382138E4,9.458031E4,1.2024095E5,1.5888808E5,-7.2401664E4,-6.3104957E4,-4.6901105E4,-5.5923934E4,-4.035546E5,-3.310615E5,-2.680294E5,-1.900757E5,-1.22341234E5,-4.7190133E4,4.5365824E4,1.1468837E5,1.9846302E5,2.9214094E5,3.5797334E5,4.3666727E4,5.094605E4,5.9492395E4,-3.730448E4,-4.483613E4,-2.7532701E4,-3.5712668E4,-2.2414965E4,-2.8645506E4,-1.6366033E4,-2.435135E4,-8.5019795E3,-1.5841239E4,-5.7305347E2,-7.9089937E3,9.024292E3,7.6227216E2,1.7032986E4,9.004497E3,2.6801994E4,1.803917E4,3.578209E4,2.7141584E4,3.9170855E4,3.076556E4],"categories":[],"categories_nodes":[],"categories_segments":[],"categories_sizes":[],"default_left":[0,0,0,0,0,0,0,0,0,0,0,0,0,0,0,0,0,0,0,0,0,0,0,0,0,0,0,0,0,0,0,0,0,0,0,0,0,0,0,0,0,0,0,0,0,0,0,0,0,0,0,0,0,0,0,0,0,0,0,0,0,0,0,0,0,0,0,0,0,0,0],"id":8,"left_children":[1,3,5,7,9,11,13,15,17,19,21,23,25,27,29,-1,-1,-1,31,33,35,37,39,41,43,45,47,-1,-1,-1,-1,-1,-1,-1,-1,49,51,53,55,57,59,61,63,65,67,69,-1,-1,-1,-1,-1,-1,-1,-1,-1,-1,-1,-1,-1,-1,-1,-1,-1,-1,-1,-1,-1,-1,-1,-1,-1],"loss_changes":[8.892312E14,1.3750526E14,1.6568333E14,2.0068839E13,2.0618452E13,2.7122383E13,2.7161004E13,1.3924083E12,3.0748946E12,1.9810033E12,2.9925017E12,3.956854E12,2.5116918E12,3.39289E12,3.3560136E12,0E0,0E0,0E0,9.415374E10,1.9156225E11,1.5849017E11,3.2342593E11,3.9200568E11,3.6197774E11,5.999176E11,2.0415775E11,1.0606556E11,0E0,0E0,0E0,0E0,0E0,0E0,0E0,0E0,3.5062284E10,3.6776706E10,4.898213E10,1.182432E11,1.696187E11,1.9396208E11,2.703202E11,1.8622854E11,1.6533842E11,8.528593E10,5.432882E10,0E0,0E0,0E0,0E0,0E0,0E0,0E0,0E0,0E0,0E0,0E0,0E0,0E0,0E0,0E0,0E0,0E0,0E0,0E0,0E0,0E0,0E0,0E0,0E0,0E0],"parents":[2147483647,0,0,1,1,2,2,3,3,4,4,5,5,6,6,7,7,8,8,9,9,10,10,11,11,12,12,13,13,14,14,18,18,19,19,20,20,21,21,22,22,23,23,24,24,25,25,26,26,35,35,36,36,37,37,38,38,39,39,40,40,41,41,42,42,43,43,44,44,45,45],"right_children":[2,4,6,8,10,12,14,16,18,20,22,24,26,28,30,-1,-1,-1,32,34,36,38,40,42,44,46,48,-1,-1,-1,-1,-1,-1,-1,-1,50,52,54,56,58,60,62,64,66,68,70,-1,-1,-1,-1,-1,-1,-1,-1,-1,-1,-1,-1,-1,-1,-1,-1,-1,-1,-1,-1,-1,-1,-1,-1,-1],"split_conditions":[3.916936E6,2.716422E6,5.24077E6,1.970898E6,3.286537E6,4.588291E6,6.034625E6,1.478321E6,2.319813E6,3.007136E6,3.596401E6,4.234885E6,4.881475E6,5.582702E6,6.545095E6,-1.3701428E5,-1.086284E5,-8.750021E4,2.551162E6,4.57E2,3.183824E6,3.474327E6,3.75684E6,4.07533E6,4.435515E6,4.70474E6,5.031911E6,7.382138E4,9.458031E4,1.2024095E5,1.5888808E5,-7.2401664E4,-6.3104957E4,-4.6901105E4,-5.5923934E4,5.03E2,4.54E2,2.4E1,5.88E2,5.91E2,5.77E2,5.81E2,6.07E2,5.85E2,6.05E2,3.9E1,4.3666727E4,5.094605E4,5.9492395E4,-3.730448E4,-4.483613E4,-2.7532701E4,-3.5712668E4,-2.2414965E4,-2.8645506E4,-1.6366033E4,-2.435135E4,-8.5019795E3,-1.5841239E4,-5.7305347E2,-7.9089937E3,9.024292E3,7.6227216E2,1.7032986E4,9.004497E3,2.6801994E4,1.803917E4,3.578209E4,2.7141584E4,3.9170855E4,3.076556E4],"split_indices":[6,6,6,6,6,6,6,6,6,6,6,6,6,6,6,0,0,0,6,2,6,6,6,6,6,6,6,0,0,0,0,0,0,0,0,2,2,1,2,2,2,2,2,2,2,1,0,0,0,0,0,0,0,0,0,0,0,0,0,0,0,0,0,0,0,0,0,0,0,0,0],"split_type":[0,0,0,0,0,0,0,0,0,0,0,0,0,0,0,0,0,0,0,0,0,0,0,0,0,0,0,0,0,0,0,0,0,0,0,0,0,0,0,0,0,0,0,0,0,0,0,0,0,0,0,0,0,0,0,0,0,0,0,0,0,0,0,0,0,0,0,0,0,0,0],"sum_hessian":[3.234E3,1.629E3,1.605E3,6.37E2,9.92E2,1.075E3,5.3E2,1.97E2,4.4E2,4.61E2,5.31E2,6.07E2,4.68E2,3.8E2,1.5E2,4.2E1,1.55E2,1.71E2,2.69E2,2.22E2,2.39E2,2.5E2,2.81E2,3.05E2,3.02E2,2.41E2,2.27E2,2.05E2,1.75E2,9.8E1,5.2E1,1.59E2,1.1E2,1.16E2,1.06E2,1.47E2,9.2E1,1.39E2,1.11E2,1.35E2,1.46E2,1.59E2,1.46E2,1.69E2,1.33E2,1.02E2,1.39E2,1.05E2,1.22E2,9.3E1,5.4E1,3.3E1,5.9E1,4.5E1,9.4E1,7.7E1,3.4E1,6.8E1,6.7E1,6.4E1,8.2E1,7.2E1,8.7E1,4.3E1,1.03E2,3.2E1,1.37E2,2.8E1,1.05E2,5.7E1,4.5E1],"tree_param":{"num_deleted":"0","num_feature":"16","num_nodes":"71","size_leaf_vector":"1"}},{"base_weights":[-9.053268E3,-4.6772303E5,4.8262025E5,-8.0698625E5,-2.6476678E5,2.8321722E5,9.086875E5,-1.0576124E6,-7.0443556E5,-4.0050738E5,-1.2691426E5,1.4330478E5,4.396165E5,7.7259594E5,1.2007266E6,-1.23847664E5,-9.898256E4,-8.015422E4,-6.3093496E4,-4.700512E5,-3.3902888E5,-1.9272705E5,-5.3537496E4,6.9944016E4,2.0292164E5,3.70098E5,5.1784038E5,6.942576E4,8.849225E4,1.1153183E5,1.5421811E5,-5.0120324E4,-4.312235E4,-3.758576E4,-3.0556456E5,-2.3633773E5,-1.5811805E5,-8.0977195E4,-1.2807247E4,1.096852E5,4.4291473E4,1.6474914E5,2.4646122E5,3.3898472E5,4.0992992E4,4.7340336E4,5.5102477E4,-2.4909486E4,-3.3105355E4,-2.084386E4,-2.6835547E4,-6.076191E3,-1.7064879E4,-4.255652E3,-1.1166205E4,2.568121E3,-4.4064946E3,7.80897E3,1.4754724E4,1.1514344E3,7.6493394E3,2.261161E4,1.4943711E4,2.7948936E4,2.1819652E4,3.806687E4,3.1651775E4],"categories":[],"categories_nodes":[],"categories_segments":[],"categories_sizes":[],"default_left":[0,0,0,0,0,0,0,0,0,0,0,0,0,0,0,0,0,0,0,0,0,0,0,0,0,0,0,0,0,0,0,0,0,0,0,0,0,0,0,0,0,0,0,0,0,0,0,0,0,0,0,0,0,0,0,0,0,0,0,0,0,0,0,0,0,0,0],"id":9,"left_children":[1,3,5,7,9,11,13,15,17,19,21,23,25,27,29,-1,-1,-1,-1,31,33,35,37,39,41,43,45,-1,-1,-1,-1,-1,-1,-1,47,49,51,53,55,57,59,61,63,65,-1,-1,-1,-1,-1,-1,-1,-1,-1,-1,-1,-1,-1,-1,-1,-1,-1,-1,-1,-1,-1,-1,-1],"loss_changes":[7.1443426E14,1.1264065E14,1.296451E14,1.5010206E13,1.9166585E13,2.276013E13,1.8427691E13,9.31924E11,2.6204501E12,2.0510398E12,2.4573662E12,2.4000007E12,2.48385E12,2.3334759E12,2.741934E12,0E0,0E0,0E0,0E0,7.416368E10,2.2777378E11,3.6863948E11,2.7054598E11,2.4898804E11,4.646492E11,1.882194E11,7.682707E10,0E0,0E0,0E0,0E0,0E0,0E0,0E0,1.3487938E11,4.857633E10,1.762824E11,1.661932E11,1.2023464E11,1.0451629E11,1.6060865E11,1.21252086E11,6.9710905E10,2.3735566E10,0E0,0E0,0E0,0E0,0E0,0E0,0E0,0E0,0E0,0E0,0E0,0E0,0E0,0E0,0E0,0E0,0E0,0E0,0E0,0E0,0E0,0E0,0E0],"parents":[2147483647,0,0,1,1,2,2,3,3,4,4,5,5,6,6,7,7,8,8,9,9,10,10,11,11,12,12,13,13,14,14,19,19,20,20,21,21,22,22,23,23,24,24,25,25,26,26,34,34,35,35,36,36,37,37,38,38,39,39,40,40,41,41,42,42,43,43],"right_children":[2,4,6,8,10,12,14,16,18,20,22,24,26,28,30,-1,-1,-1,-1,32,34,36,38,40,42,44,46,-1,-1,-1,-1,-1,-1,-1,48,50,52,54,56,58,60,62,64,66,-1,-1,-1,-1,-1,-1,-1,-1,-1,-1,-1,-1,-1,-1,-1,-1,-1,-1,-1,-1,-1,-1,-1],"split_conditions":[3.943961E6,2.685749E6,5.288E6,1.939512E6,3.319731E6,4.588291E6,6.034625E6,1.478321E6,2.29127E6,2.994166E6,3.659429E6,4.215121E6,4.913478E6,5.664602E6,6.807419E6,-1.23847664E5,-9.898256E4,-8.015422E4,-6.3093496E4,2.841756E6,3.138232E6,3.474327E6,3.828003E6,6.03E2,4.406525E6,4.770427E6,5.071242E6,6.942576E4,8.849225E4,1.1153183E5,1.5421811E5,-5.0120324E4,-4.312235E4,-3.758576E4,4.48E2,5.45E2,4.36E2,5.72E2,5.79E2,4.07533E6,4.081483E6,5.85E2,6.85E2,6.82E2,4.0992992E4,4.7340336E4,5.5102477E4,-2.4909486E4,-3.3105355E4,-2.084386E4,-2.6835547E4,-6.076191E3,-1.7064879E4,-4.255652E3,-1.1166205E4,2.568121E3,-4.4064946E3,7.80897E3,1.4754724E4,1.1514344E3,7.6493394E3,2.261161E4,1.4943711E4,2.7948936E4,2.1819652E4,3.806687E4,3.1651775E4],"split_indices":[6,6,6,6,6,6,6,6,6,6,6,6,6,6,6,0,0,0,0,6,6,6,6,2,6,6,6,0,0,0,0,0,0,0,2,2,2,2,2,6,6,2,2,2,0,0,0,0,0,0,0,0,0,0,0,0,0,0,0,0,0,0,0,0,0,0,0],"split_type":[0,0,0,0,0,0,0,0,0,0,0,0,0,0,0,0,0,0,0,0,0,0,0,0,0,0,0,0,0,0,0,0,0,0,0,0,0,0,0,0,0,0,0,0,0,0,0,0,0,0,0,0,0,0,0,0,0,0,0,0,0,0,0,0,0,0,0],"sum_hessian":[3.166E3,1.638E3,1.528E3,6.12E2,1.026E3,1.042E3,4.86E2,1.75E2,4.37E2,5.16E2,5.1E2,5.51E2,4.91E2,3.34E2,1.52E2,4.3E1,1.32E2,1.84E2,2.53E2,2.39E2,2.77E2,2.68E2,2.42E2,2.48E2,3.03E2,2.63E2,2.28E2,2.01E2,1.33E2,1.25E2,2.7E1,1.26E2,1.13E2,1.27E2,1.5E2,1.16E2,1.52E2,1.44E2,9.8E1,9.6E1,1.52E2,1.64E2,1.39E2,1.53E2,1.1E2,1.04E2,1.24E2,5E1,1E2,6.6E1,5E1,1.8E1,1.34E2,6.5E1,7.9E1,4.4E1,5.4E1,5.4E1,4.2E1,7.6E1,7.6E1,3E1,1.34E2,6E1,7.9E1,4.8E1,1.05E2],"tree_param":{"num_deleted":"0","num_feature":"16","num_nodes":"67","size_leaf_vector":"1"}},{"base_weights":[5.638418E2,-4.078293E5,4.4521084E5,-6.967854E5,-2.0972636E5,2.5207423E5,7.925371E5,-8.605307E5,-5.581527E5,-3.2752328E5,-9.245445E4,1.3539353E5,3.7885072E5,6.361067E5,1.0169648E6,-1.0362861E5,-7.9030956E5,-6.2390207E4,-5.003814E4,-3.8788694E5,-2.7080347E5,-1.4681689E5,-3.706161E4,8.1597734E4,2.0658977E5,3.1267003E5,4.33943E5,5.608974E4,6.865927E4,8.955799E4,1.2268869E6,-8.558229E4,-7.4114414E4,-3.625946E4,-4.1948035E4,-2.9105553E5,-2.3299142E5,-1.7726047E5,-1.2180942E5,-9.285784E3,-6.3881965E4,5.494117E4,1.14549914E5,1.7886347E5,2.414808E5,3.4249152E4,2.7405575E5,3.8735074E4,4.6102816E4,1.1279819E5,1.5458262E5,-2.6400629E4,-3.2115797E4,-1.8338332E4,-2.5643795E4,-1.2346069E4,-1.965646E4,-9.508276E3,-1.4990927E4,-4.4679624E3,2.0963984E3,-7.9880713E3,-2.7487637E3,9.162529E3,3.0180244E3,1.5781591E4,9.235904E3,2.1464031E4,1.5440869E4,1.522863E4,2.513481E4,2.501927E4,3.1909959E4],"categories":[],"categories_nodes":[],"categories_segments":[],"categories_sizes":[],"default_left":[0,0,0,0,0,0,0,0,0,0,0,0,0,0,0,0,0,0,0,0,0,0,0,0,0,0,0,0,0,0,0,0,0,0,0,0,0,0,0,0,0,0,0,0,0,0,0,0,0,0,0,0,0,0,0,0,0,0,0,0,0,0,0,0,0,0,0,0,0,0,0,0,0],"id":10,"left_children":[1,3,5,7,9,11,13,15,17,19,21,23,25,27,29,-1,31,-1,-1,33,35,37,39,41,43,45,47,-1,-1,-1,49,-1,-1,-1,-1,51,53,55,57,59,61,63,65,67,69,-1,71,-1,-1,-1,-1,-1,-1,-1,-1,-1,-1,-1,-1,-1,-1,-1,-1,-1,-1,-1,-1,-1,-1,-1,-1,-1,-1],"loss_changes":[5.8109055E14,9.533527E13,1.0256892E14,1.4910617E13,1.3659661E13,1.4533981E13,1.8556842E13,2.9945988E12,1.09322856E12,1.5863193E12,1.494181E12,1.9556226E12,1.5852498E12,8.4891035E11,4.583569E12,0E0,9.043758E10,0E0,0E0,3.728317E10,1.2975918E11,1.6949864E11,1.8415626E11,2.5283212E11,1.7060332E11,1.5717315E11,1.432229E11,0E0,0E0,0E0,7.483729E11,0E0,0E0,0E0,0E0,4.874725E10,6.3471354E10,9.101168E10,9.163925E10,1.3262728E11,7.1169475E10,1.4710961E11,1.1119873E11,7.797185E10,4.5333086E10,0E0,2.7651473E10,0E0,0E0,0E0,0E0,0E0,0E0,0E0,0E0,0E0,0E0,0E0,0E0,0E0,0E0,0E0,0E0,0E0,0E0,0E0,0E0,0E0,0E0,0E0,0E0,0E0,0E0],"parents":[2147483647,0,0,1,1,2,2,3,3,4,4,5,5,6,6,7,7,8,8,9,9,10,10,11,11,12,12,13,13,14,14,16,16,19,19,20,20,21,21,22,22,23,23,24,24,25,25,26,26,30,30,35,35,36,36,37,37,38,38,39,39,40,40,41,41,42,42,43,43,44,44,46,46],"right_children":[2,4,6,8,10,12,14,16,18,20,22,24,26,28,30,-1,32,-1,-1,34,36,38,40,42,44,46,48,-1,-1,-1,50,-1,-1,-1,-1,52,54,56,58,60,62,64,66,68,70,-1,72,-1,-1,-1,-1,-1,-1,-1,-1,-1,-1,-1,-1,-1,-1,-1,-1,-1,-1,-1,-1,-1,-1,-1,-1,-1,-1],"split_conditions":[3.970231E6,2.805587E6,5.193774E6,2.193999E6,3.400577E6,4.573566E6,5.829913E6,1.693839E6,2.496314E6,3.092371E6,3.705842E6,4.293437E6,4.82912E6,5.404853E6,6.390126E6,-1.0362861E5,1.939512E6,-6.2390207E4,-5.003814E4,2.5E1,3.286537E6,3.541385E6,1E1,4.143623E6,4.452257E6,3.8E1,4.966924E6,5.608974E4,6.865927E4,8.955799E4,7.034884E6,-8.558229E4,-7.4114414E4,-3.625946E4,-4.1948035E4,9E0,2.4E1,2.4E1,3E1,3.828003E6,3.888152E6,1E1,1E1,3.2E1,7.902494E-1,3.4249152E4,4.752493E6,3.8735074E4,4.6102816E4,1.1279819E5,1.5458262E5,-2.6400629E4,-3.2115797E4,-1.8338332E4,-2.5643795E4,-1.2346069E4,-1.965646E4,-9.508276E3,-1.4990927E4,-4.4679624E3,2.0963984E3,-7.9880713E3,-2.7487637E3,9.162529E3,3.0180244E3,1.5781591E4,9.235904E3,2.1464031E4,1.5440869E4,1.522863E4,2.513481E4,2.501927E4,3.1909959E4],"split_indices":[6,6,6,6,6,6,6,6,6,6,6,6,6,6,6,0,6,0,0,1,6,6,3,6,6,1,6,0,0,0,6,0,0,0,0,3,1,1,1,6,6,3,3,1,9,0,6,0,0,0,0,0,0,0,0,0,0,0,0,0,0,0,0,0,0,0,0,0,0,0,0,0,0],"split_type":[0,0,0,0,0,0,0,0,0,0,0,0,0,0,0,0,0,0,0,0,0,0,0,0,0,0,0,0,0,0,0,0,0,0,0,0,0,0,0,0,0,0,0,0,0,0,0,0,0,0,0,0,0,0,0,0,0,0,0,0,0,0,0,0,0,0,0,0,0,0,0,0,0],"sum_hessian":[3.198E3,1.667E3,1.531E3,6.77E2,9.9E2,9.85E2,5.46E2,3.08E2,3.69E2,4.93E2,4.97E2,5.14E2,4.71E2,3.24E2,2.22E2,8.4E1,2.24E2,1.68E2,2.01E2,2.36E2,2.57E2,2.5E2,2.47E2,2.94E2,2.2E2,2.17E2,2.54E2,1.35E2,1.89E2,1.44E2,7.8E1,8.9E1,1.35E2,1.38E2,9.8E1,1.63E2,9.4E1,1.1E2,1.4E2,1.22E2,1.25E2,1.64E2,1.3E2,1.26E2,9.4E1,1.18E2,9.9E1,9.9E1,1.55E2,6.3E1,1.5E1,9.1E1,7.2E1,3.3E1,6.1E1,3.1E1,7.9E1,7.4E1,6.6E1,5.6E1,6.6E1,8.6E1,3.9E1,6.5E1,9.9E1,4.2E1,8.8E1,4.8E1,7.8E1,1.1E1,8.3E1,6.9E1,3E1],"tree_param":{"num_deleted":"0","num_feature":"16","num_nodes":"73","size_leaf_vector":"1"}},{"base_weights":[2.0824575E3,-3.6510197E5,4.007115E5,-6.0407356E5,-1.7798047E5,2.3762858E5,7.367018E5,-7.7823494E5,-4.8686944E5,-2.7158688E5,-7.443197E4,1.26630836E5,3.565081E5,6.387362E5,1.0217817E6,-9.014401E5,-6.972315E4,-5.3969494E5,-4.2065022E5,-3.1558756E5,-2.1996719E5,-1.2086907E5,-3.346657E4,7.995601E4,1.9174572E5,3.015897E5,4.262815E5,5.722916E5,7.448556E4,9.579135E4,1.4089892E5,-1.06828586E5,-8.475309E4,-5.7696188E4,-5.0021504E4,-3.8874895E4,-4.6083594E4,-2.802175E5,-3.4989855E4,-2.0436912E5,-2.612755E4,-1.0241862E5,-1.6559573E5,-9.5748425E2,-6.075697E4,5.484692E4,1.11086945E5,2.5708216E5,1.7674464E5,2.639486E5,3.291747E5,4.5101082E4,3.8481465E4,5.005754E5,5.969003E4,-2.9716693E4,-2.3933826E4,-2.3422688E4,-1.846891E4,-1.2250221E4,-6.370207E3,-2.0996654E4,-1.4158047E4,-1.5164803E3,4.380472E3,-9.281361E3,-4.290392E3,8.884206E3,3.1990427E3,1.6932918E4,9.243483E3,2.6014953E4,6.872725E3,2.3092514E4,1.6533857E4,2.8892498E4,2.2020607E4,3.799E4,3.1097521E4,5.0387547E4,1.4138525E4],"categories":[],"categories_nodes":[],"categories_segments":[],"categories_sizes":[],"default_left":[0,0,0,0,0,0,0,0,0,0,0,0,0,0,0,0,0,0,0,0,0,0,0,0,0,0,0,0,0,0,0,0,0,0,0,0,0,0,0,0,0,0,0,0,0,0,0,0,0,0,0,0,0,0,0,0,0,0,0,0,0,0,0,0,0,0,0,0,0,0,0,0,0,0,0,0,0,0,0,0,0],"id":11,"left_children":[1,3,5,7,9,11,13,15,17,19,21,23,25,27,29,31,-1,33,35,37,39,41,43,45,47,49,51,53,-1,-1,-1,-1,-1,-1,-1,-1,-1,55,-1,57,-1,59,61,63,65,67,69,71,73,75,77,-1,-1,79,-1,-1,-1,-1,-1,-1,-1,-1,-1,-1,-1,-1,-1,-1,-1,-1,-1,-1,-1,-1,-1,-1,-1,-1,-1,-1,-1],"loss_changes":[4.740936E14,7.528487E13,8.492046E13,1.4726319E13,9.158869E12,1.3770395E13,1.350685E13,2.3255906E12,1.3296111E12,1.0594183E12,8.5389895E11,1.6349685E12,1.8065161E12,2.2531466E12,1.8157813E12,1.1996548E11,0E0,7.038881E10,7.980922E10,2.2476646E11,9.608836E10,1.5716267E11,2.1375364E11,2.4247822E11,1.7606797E11,2.1007591E11,5.204712E10,1.2123216E11,0E0,0E0,0E0,0E0,0E0,0E0,0E0,0E0,0E0,2.3108518E10,0E0,5.8395197E10,0E0,1.1038661E11,3.4207433E10,7.125484E10,7.0990365E10,1.354656E11,1.3752205E11,5.2308214E9,7.738281E10,7.403628E10,3.049259E10,0E0,0E0,8.177844E9,0E0,0E0,0E0,0E0,0E0,0E0,0E0,0E0,0E0,0E0,0E0,0E0,0E0,0E0,0E0,0E0,0E0,0E0,0E0,0E0,0E0,0E0,0E0,0E0,0E0,0E0,0E0],"parents":[2147483647,0,0,1,1,2,2,3,3,4,4,5,5,6,6,7,7,8,8,9,9,10,10,11,11,12,12,13,13,14,14,15,15,17,17,18,18,19,19,20,20,21,21,22,22,23,23,24,24,25,25,26,26,27,27,37,37,39,39,41,41,42,42,43,43,44,44,45,45,46,46,47,47,48,48,49,49,50,50,53,53],"right_children":[2,4,6,8,10,12,14,16,18,20,22,24,26,28,30,32,-1,34,36,38,40,42,44,46,48,50,52,54,-1,-1,-1,-1,-1,-1,-1,-1,-1,56,-1,58,-1,60,62,64,66,68,70,72,74,76,78,-1,-1,80,-1,-1,-1,-1,-1,-1,-1,-1,-1,-1,-1,-1,-1,-1,-1,-1,-1,-1,-1,-1,-1,-1,-1,-1,-1,-1,-1],"split_conditions":[3.970231E6,2.867379E6,5.288E6,2.193999E6,3.474327E6,4.588291E6,6.142157E6,1.756568E6,2.604907E6,3.183824E6,3.705842E6,4.313142E6,4.928382E6,5.734932E6,7.034884E6,1.39272E6,-6.972315E4,2.425598E6,4.54E2,4.77E2,5.79E2,6.18E2,5.81E2,4.16107E6,5.96E2,4.734337E6,7.96E2,5.366884E6,7.448556E4,9.579135E4,1.4089892E5,-1.06828586E5,-8.475309E4,-5.7696188E4,-5.0021504E4,-3.8874895E4,-4.6083594E4,3.057886E6,-3.4989855E4,3.273443E6,-2.612755E4,3.616671E6,3.568479E6,3.903596E6,3.794443E6,6.07E2,5.85E2,3.9E1,1E1,3.9E1,3.3E1,4.5101082E4,3.8481465E4,8.97E2,5.969003E4,-2.9716693E4,-2.3933826E4,-2.3422688E4,-1.846891E4,-1.2250221E4,-6.370207E3,-2.0996654E4,-1.4158047E4,-1.5164803E3,4.380472E3,-9.281361E3,-4.290392E3,8.884206E3,3.1990427E3,1.6932918E4,9.243483E3,2.6014953E4,6.872725E3,2.3092514E4,1.6533857E4,2.8892498E4,2.2020607E4,3.799E4,3.1097521E4,5.0387547E4,1.4138525E4],"split_indices":[6,6,6,6,6,6,6,6,6,6,6,6,6,6,6,6,0,6,2,2,2,2,2,6,2,6,2,6,0,0,0,0,0,0,0,0,0,6,0,6,0,6,6,6,6,2,2,1,3,1,1,0,0,2,0,0,0,0,0,0,0,0,0,0,0,0,0,0,0,0,0,0,0,0,0,0,0,0,0,0,0],"split_type":[0,0,0,0,0,0,0,0,0,0,0,0,0,0,0,0,0,0,0,0,0,0,0,0,0,0,0,0,0,0,0,0,0,0,0,0,0,0,0,0,0,0,0,0,0,0,0,0,0,0,0,0,0,0,0,0,0,0,0,0,0,0,0,0,0,0,0,0,0,0,0,0,0,0,0,0,0,0,0,0,0],"sum_hessian":[3.237E3,1.685E3,1.552E3,7.39E2,9.46E2,1.046E3,5.06E2,2.95E2,4.44E2,4.96E2,4.5E2,5.42E2,5.04E2,3.79E2,1.27E2,1.13E2,1.82E2,2.43E2,2.01E2,2.65E2,2.31E2,2.1E2,2.4E2,3.17E2,2.25E2,2.85E2,2.19E2,2.37E2,1.42E2,1.12E2,1.5E1,2.3E1,9E1,1.18E2,1.25E2,1.18E2,8.3E1,1.35E2,1.3E2,1.72E2,5.9E1,1.51E2,5.9E1,1.1E2,1.3E2,1.77E2,1.4E2,3.9E1,1.86E2,1.25E2,1.6E2,1.31E2,8.8E1,6.6E1,1.71E2,9.1E1,4.4E1,6.4E1,1.08E2,9.8E1,5.3E1,1.8E1,4.1E1,8.4E1,2.6E1,4.5E1,8.5E1,7E1,1.07E2,3.2E1,1.08E2,3.8E1,1E0,2.9E1,1.57E2,7.6E1,4.9E1,3.7E1,1.23E2,6.5E1,1E0],"tree_param":{"num_deleted":"0","num_feature":"16","num_nodes":"81","size_leaf_vector":"1"}},{"base_weights":[-6.215954E3,-3.5003438E5,3.4691634E5,-5.985366E5,-2.0136862E5,2.042467E5,6.680892E5,-7.6893956E5,-5.1539303E5,-3.0588125E5,-1.0933485E5,8.262862E4,3.075343E5,5.9135294E5,9.491775E5,-9.05926E4,-7.112785E4,-5.7256652E4,-4.590209E4,-3.5461597E5,-2.5808612E5,-1.5768756E5,-5.5332676E4,3.952695E4,1.31565E5,2.49156E5,3.745594E5,5.1819634E5,6.83198E4,8.987673E4,1.2290352E5,-3.1882395E4,-3.8596152E4,-2.2578511E5,-2.7954709E4,-1.797975E5,-1.1644461E5,-2.4136715E4,-8.126876E4,7.398097E4,2.2272068E4,1.06125266E5,1.571864E5,2.1749192E5,2.8208072E5,3.3699484E5,4.088888E4,4.7203637E4,5.44495E4,-2.4769201E4,-1.9078059E4,-1.5565008E4,-2.1313836E4,-3.7132402E3,-1.2649531E4,2.0457489E3,-3.4461765E3,-9.914912E3,-4.777108E3,5.0427964E3,1.0955203E4,-1.5093485E3,4.1703384E3,1.4336033E4,8.621352E3,1.949649E4,1.3628197E4,2.5423146E4,1.8996672E4,3.2992465E4,2.6834154E4,3.5616727E4,2.9651145E4],"categories":[],"categories_nodes":[],"categories_segments":[],"categories_sizes":[],"default_left":[0,0,0,0,0,0,0,0,0,0,0,0,0,0,0,0,0,0,0,0,0,0,0,0,0,0,0,0,0,0,0,0,0,0,0,0,0,0,0,0,0,0,0,0,0,0,0,0,0,0,0,0,0,0,0,0,0,0,0,0,0,0,0,0,0,0,0,0,0,0,0,0,0],"id":12,"left_children":[1,3,5,7,9,11,13,15,17,19,21,23,25,27,29,-1,-1,-1,-1,31,33,35,37,39,41,43,45,47,-1,-1,-1,-1,-1,49,-1,51,53,55,57,59,61,63,65,67,69,71,-1,-1,-1,-1,-1,-1,-1,-1,-1,-1,-1,-1,-1,-1,-1,-1,-1,-1,-1,-1,-1,-1,-1,-1,-1,-1,-1],"loss_changes":[3.908297E14,6.0134793E13,7.262825E13,8.246119E12,9.796858E12,1.3804956E13,9.96471E12,9.1960954E11,1.06827245E12,1.02187506E12,1.4143523E12,1.0641846E12,2.2347965E12,2.2395235E12,3.4847116E11,0E0,0E0,0E0,0E0,1.3947319E11,1.0671987E11,2.4077245E11,2.075955E11,1.5946177E11,1.3779547E11,2.7330295E11,2.1684132E11,8.82901E9,0E0,0E0,0E0,0E0,0E0,3.172991E10,0E0,1.1576803E11,7.7408895E10,5.5497056E10,7.971563E10,6.987796E10,1.3277271E11,7.809309E10,6.503976E10,1.2159707E11,1.2697207E10,7.266632E8,0E0,0E0,0E0,0E0,0E0,0E0,0E0,0E0,0E0,0E0,0E0,0E0,0E0,0E0,0E0,0E0,0E0,0E0,0E0,0E0,0E0,0E0,0E0,0E0,0E0,0E0,0E0],"parents":[2147483647,0,0,1,1,2,2,3,3,4,4,5,5,6,6,7,7,8,8,9,9,10,10,11,11,12,12,13,13,14,14,19,19,20,20,21,21,22,22,23,23,24,24,25,25,26,26,27,27,33,33,35,35,36,36,37,37,38,38,39,39,40,40,41,41,42,42,43,43,44,44,45,45],"right_children":[2,4,6,8,10,12,14,16,18,20,22,24,26,28,30,-1,-1,-1,-1,32,34,36,38,40,42,44,46,48,-1,-1,-1,-1,-1,50,-1,52,54,56,58,60,62,64,66,68,70,72,-1,-1,-1,-1,-1,-1,-1,-1,-1,-1,-1,-1,-1,-1,-1,-1,-1,-1,-1,-1,-1,-1,-1,-1,-1,-1,-1],"split_conditions":[3.903596E6,2.664146E6,5.306628E6,1.970898E6,3.256798E6,4.478619E6,6.255924E6,1.540417E6,2.338619E6,2.971097E6,3.616671E6,4.183984E6,4.881475E6,5.734932E6,7.034884E6,-9.05926E4,-7.112785E4,-5.7256652E4,-4.590209E4,4.43E2,4.54E2,3.498727E6,5.85E2,5.75E2,4.342608E6,4.69677E6,5.071242E6,5.426164E6,6.83198E4,8.987673E4,1.2290352E5,-3.1882395E4,-3.8596152E4,3.120845E6,-2.7954709E4,5.45E2,4.1E2,4.54E2,3.794443E6,4.034997E6,4.005169E6,3.1E1,3.3E1,6.96E2,3.2E1,7.86E2,4.088888E4,4.7203637E4,5.44495E4,-2.4769201E4,-1.9078059E4,-1.5565008E4,-2.1313836E4,-3.7132402E3,-1.2649531E4,2.0457489E3,-3.4461765E3,-9.914912E3,-4.777108E3,5.0427964E3,1.0955203E4,-1.5093485E3,4.1703384E3,1.4336033E4,8.621352E3,1.949649E4,1.3628197E4,2.5423146E4,1.8996672E4,3.2992465E4,2.6834154E4,3.5616727E4,2.9651145E4],"split_indices":[6,6,6,6,6,6,6,6,6,6,6,6,6,6,6,0,0,0,0,2,2,6,2,2,6,6,6,6,0,0,0,0,0,6,0,2,2,2,6,6,6,1,1,2,1,2,0,0,0,0,0,0,0,0,0,0,0,0,0,0,0,0,0,0,0,0,0,0,0,0,0,0,0],"split_type":[0,0,0,0,0,0,0,0,0,0,0,0,0,0,0,0,0,0,0,0,0,0,0,0,0,0,0,0,0,0,0,0,0,0,0,0,0,0,0,0,0,0,0,0,0,0,0,0,0,0,0,0,0,0,0,0,0,0,0,0,0,0,0,0,0,0,0,0,0,0,0,0,0],"sum_hessian":[3.217E3,1.63E3,1.587E3,6.09E2,1.021E3,1.1E3,4.87E2,1.97E2,4.12E2,4.77E2,5.44E2,5.06E2,5.94E2,3.85E2,1.02E2,5.4E1,1.43E2,2E2,2.12E2,2.33E2,2.44E2,2.86E2,2.58E2,2.7E2,2.36E2,3.2E2,2.74E2,2.18E2,1.67E2,9E1,1.2E1,1.14E2,1.19E2,1.02E2,1.42E2,1.84E2,1.02E2,1.18E2,1.4E2,8.9E1,1.81E2,1.21E2,1.15E2,1.67E2,1.53E2,1.36E2,1.38E2,8.6E1,1.32E2,5.9E1,4.3E1,1.1E2,7.4E1,1.2E1,9E1,2.2E1,9.6E1,9E1,5E1,5.5E1,3.4E1,6.2E1,1.19E2,4E1,8.1E1,3.8E1,7.7E1,6.8E1,9.9E1,2.9E1,1.24E2,8.7E1,4.9E1],"tree_param":{"num_deleted":"0","num_feature":"16","num_nodes":"73","size_leaf_vector":"1"}},{"base_weights":[1.7759409E3,-2.8946162E5,2.275568E5,-1.619467E5,-4.1368138E5,1.1672753E5,3.6779372E5,-3.092008E5,-6.7919984E4,-5.301126E5,-2.9475175E5,2.0327838E5,-1.4250311E4,4.6868547E5,2.2271705E5,-2.4770052E5,-3.6327412E5,1.1597485E4,-1.4346006E5,-4.7683594E5,-6.1481856E5,-1.6762627E5,-3.819558E5,2.9095125E5,7.691772E4,1.7468894E5,-7.573299E4,3.8965394E5,5.987803E5,1.7932792E5,3.66692E5,-2.8457212E5,-1.8762961E5,-4.2690934E5,-3.0941588E5,-3.1548428E4,1.3756011E5,-7.096186E4,-2.0834034E5,-5.598196E5,-4.264967E5,-6.594359E4,-5.181985E5,-9.240537E4,-2.211509E5,-3.14292E5,-4.4169738E5,1.6258788E5,3.291024E5,-2.7124836E4,1.4646025E5,8.224357E4,3.490038E5,-1.0571728E4,-1.6524714E5,4.947623E5,3.1637238E5,7.158646E5,5.2131762E5,2.1780194E5,8.279923E4,3.978423E5,1.8752561E5,3.32485E3,-2.8913146E4,-5.6051064E3,-2.3945738E4,-5.1771477E4,-3.747462E4,-1.8832803E4,-3.3674523E4,1.083717E4,-6.1909487E3,1.4785016E3,1.8563488E4,-1.2366649E4,5.148815E3,-2.8053248E4,-1.5719284E4,-1.6418975E4,-5.627126E4,-3.682003E4,-4.8368117E4,-6.2371438E4,-3.91091E4,-1.799697E4,-2.837623E3,-3.159953E4,-1.6260783E4,1.3252425E4,-3.2008541E4,-3.5031824E4,-4.772333E4,2.4292076E4,5.3977993E3,3.812234E4,2.6061281E4,1.653006E4,-8.598491E3,2.4366885E4,8.426069E3,4.628909E3,1.8315418E4,4.3908715E4,2.2021717E4,1.5873861E3,-1.7982377E4,-2.4537598E4,-6.737825E3,6.450725E4,4.5597062E4,3.6186434E4,1.5775591E4,7.5373695E4,3.8805023E4,5.579054E4,3.186438E4,2.7013438E4,1.2894157E4,1.2933505E4,2.1062742E3,4.1900797E4,1.9995238E4,1.0176064E4,2.4650123E4],"categories":[],"categories_nodes":[],"categories_segments":[],"categories_sizes":[],"default_left":[0,0,0,0,0,0,0,0,0,0,0,0,0,0,0,0,0,0,0,0,0,0,0,0,0,0,0,0,0,0,0,0,0,0,0,0,0,0,0,0,0,0,0,0,0,0,0,0,0,0,0,0,0,0,0,0,0,0,0,0,0,0,0,0,0,0,0,0,0,0,0,0,0,0,0,0,0,0,0,0,0,0,0,0,0,0,0,0,0,0,0,0,0,0,0,0,0,0,0,0,0,0,0,0,0,0,0,0,0,0,0,0,0,0,0,0,0,0,0,0,0,0,0,0,0],"id":13,"left_children":[1,3,5,7,9,11,13,15,17,19,21,23,25,27,29,31,33,35,37,39,41,43,45,47,49,51,53,55,57,59,61,63,65,67,69,71,73,75,77,79,81,-1,83,85,87,89,91,93,95,97,99,101,103,105,107,109,111,113,115,117,119,121,123,-1,-1,-1,-1,-1,-1,-1,-1,-1,-1,-1,-1,-1,-1,-1,-1,-1,-1,-1,-1,-1,-1,-1,-1,-1,-1,-1,-1,-1,-1,-1,-1,-1,-1,-1,-1,-1,-1,-1,-1,-1,-1,-1,-1,-1,-1,-1,-1,-1,-1,-1,-1,-1,-1,-1,-1,-1,-1,-1,-1,-1,-1],"loss_changes":[2.1035314E14,2.206131E13,2.796439E13,9.546462E12,9.633662E12,1.1429828E13,1.1532063E13,8.0458285E11,2.5425213E12,1.3134127E12,3.838197E12,6.7022105E12,4.68306E12,4.5784687E12,1.983241E12,2.3232984E11,3.5115133E11,1.1293378E12,1.0059194E12,6.927858E11,2.3594638E11,5.6335925E11,7.019818E11,1.6996956E12,1.8128183E12,1.566642E12,1.771441E12,2.1080069E12,1.2140035E12,9.2528286E11,3.4397592E11,1.2263883E11,3.4118815E11,9.9664E10,2.0132135E11,6.6516825E11,3.1008168E11,6.775504E11,3.768409E11,3.1666995E8,2.9861767E11,0E0,3.8642752E11,3.4250667E11,4.150248E11,3.0386684E11,1.8351758E11,7.1978294E11,8.823285E11,1.158157E12,8.864182E11,2.3098239E11,2.9775757E11,7.951011E11,9.872584E11,3.9972766E11,1.2128879E12,5.393204E11,6.3050455E11,8.068682E11,2.0987475E11,1.8009083E11,4.0670396E10,0E0,0E0,0E0,0E0,0E0,0E0,0E0,0E0,0E0,0E0,0E0,0E0,0E0,0E0,0E0,0E0,0E0,0E0,0E0,0E0,0E0,0E0,0E0,0E0,0E0,0E0,0E0,0E0,0E0,0E0,0E0,0E0,0E0,0E0,0E0,0E0,0E0,0E0,0E0,0E0,0E0,0E0,0E0,0E0,0E0,0E0,0E0,0E0,0E0,0E0,0E0,0E0,0E0,0E0,0E0,0E0,0E0,0E0,0E0,0E0,0E0,0E0],"parents":[2147483647,0,0,1,1,2,2,3,3,4,4,5,5,6,6,7,7,8,8,9,9,10,10,11,11,12,12,13,13,14,14,15,15,16,16,17,17,18,18,19,19,20,20,21,21,22,22,23,23,24,24,25,25,26,26,27,27,28,28,29,29,30,30,31,31,32,32,33,33,34,34,35,35,36,36,37,37,38,38,39,39,40,40,42,42,43,43,44,44,45,45,46,46,47,47,48,48,49,49,50,50,51,51,52,52,53,53,54,54,55,55,56,56,57,57,58,58,59,59,60,60,61,61,62,62],"right_children":[2,4,6,8,10,12,14,16,18,20,22,24,26,28,30,32,34,36,38,40,42,44,46,48,50,52,54,56,58,60,62,64,66,68,70,72,74,76,78,80,82,-1,84,86,88,90,92,94,96,98,100,102,104,106,108,110,112,114,116,118,120,122,124,-1,-1,-1,-1,-1,-1,-1,-1,-1,-1,-1,-1,-1,-1,-1,-1,-1,-1,-1,-1,-1,-1,-1,-1,-1,-1,-1,-1,-1,-1,-1,-1,-1,-1,-1,-1,-1,-1,-1,-1,-1,-1,-1,-1,-1,-1,-1,-1,-1,-1,-1,-1,-1,-1,-1,-1,-1,-1,-1,-1,-1,-1],"split_conditions":[2.9E1,3.425619E6,3.9E1,2.1E1,2.2E1,5.202312E-2,4.025202E6,2.07493E6,4.788419E-2,5.129236E6,4.7158405E-2,4.084905E6,2.193431E6,4.7E1,5E1,1.8E1,1.7E1,2.7E1,2.133124E6,1.7E1,2E1,4.271334E6,4.629011E6,3.1E1,3.3E1,3.6E1,4.370323E6,2.214666E6,2.054215E6,5.436334E6,1.4556041E-2,5.06E2,4.450626E-2,1.4580802E-2,4.199475E-2,1.222786E6,1.1807407E0,2.7E1,2.4E1,5.09E2,4.9001817E-2,-6.594359E4,9.6E2,2.5E1,1.4767933E-2,4.7449585E-2,5.1490515E-2,2.392243E6,4.6296295E-2,4.1719344E-2,4.3927647E-2,1.8348623E-2,1.598137E6,6.492028E-2,3.5E1,4.858934E-2,6.0288336E-2,1E0,1E0,5.952381E-2,5.5762082E-2,1E0,6.3464835E-2,3.32485E3,-2.8913146E4,-5.6051064E3,-2.3945738E4,-5.1771477E4,-3.747462E4,-1.8832803E4,-3.3674523E4,1.083717E4,-6.1909487E3,1.4785016E3,1.8563488E4,-1.2366649E4,5.148815E3,-2.8053248E4,-1.5719284E4,-1.6418975E4,-5.627126E4,-3.682003E4,-4.8368117E4,-6.2371438E4,-3.91091E4,-1.799697E4,-2.837623E3,-3.159953E4,-1.6260783E4,1.3252425E4,-3.2008541E4,-3.5031824E4,-4.772333E4,2.4292076E4,5.3977993E3,3.812234E4,2.6061281E4,1.653006E4,-8.598491E3,2.4366885E4,8.426069E3,4.628909E3,1.8315418E4,4.3908715E4,2.2021717E4,1.5873861E3,-1.7982377E4,-2.4537598E4,-6.737825E3,6.450725E4,4.5597062E4,3.6186434E4,1.5775591E4,7.5373695E4,3.8805023E4,5.579054E4,3.186438E4,2.7013438E4,1.2894157E4,1.2933505E4,2.1062742E3,4.1900797E4,1.9995238E4,1.0176064E4,2.4650123E4],"split_indices":[1,5,1,1,1,7,5,5,7,5,7,5,5,1,1,1,1,1,5,1,1,5,5,1,1,1,5,5,5,5,8,4,7,8,7,5,9,1,1,4,7,0,4,1,8,7,7,5,7,7,7,8,5,7,1,7,7,10,11,7,7,10,7,0,0,0,0,0,0,0,0,0,0,0,0,0,0,0,0,0,0,0,0,0,0,0,0,0,0,0,0,0,0,0,0,0,0,0,0,0,0,0,0,0,0,0,0,0,0,0,0,0,0,0,0,0,0,0,0,0,0,0,0,0,0],"split_type":[0,0,0,0,0,0,0,0,0,0,0,0,0,0,0,0,0,0,0,0,0,0,0,0,0,0,0,0,0,0,0,0,0,0,0,0,0,0,0,0,0,0,0,0,0,0,0,0,0,0,0,0,0,0,0,0,0,0,0,0,0,0,0,0,0,0,0,0,0,0,0,0,0,0,0,0,0,0,0,0,0,0,0,0,0,0,0,0,0,0,0,0,0,0,0,0,0,0,0,0,0,0,0,0,0,0,0,0,0,0,0,0,0,0,0,0,0,0,0,0,0,0,0,0,0],"sum_hessian":[3.197E3,1.396E3,1.801E3,6.9E2,7.06E2,1.007E3,7.94E2,2.68E2,4.22E2,3.55E2,3.51E2,6.06E2,4.01E2,4.67E2,3.27E2,1.28E2,1.4E2,2.06E2,2.16E2,2.22E2,1.33E2,1.44E2,2.07E2,3.57E2,2.49E2,9.8E1,3.03E2,2.93E2,1.74E2,2.53E2,7.4E1,7.7E1,5.1E1,6.1E1,7.9E1,1.54E2,5.2E1,1.03E2,1.13E2,8E1,1.42E2,8.7E1,4.6E1,6.1E1,8.3E1,1E2,1.07E2,8.3E1,2.74E2,1E2,1.49E2,6.5E1,3.3E1,1.76E2,1.27E2,1.18E2,1.75E2,6.6E1,1.08E2,1.8E2,7.3E1,6.2E1,1.2E1,1E0,7.6E1,1.5E1,3.6E1,1.9E1,4.2E1,1.6E1,6.3E1,2.7E1,1.27E2,1.5E1,3.7E1,7.2E1,3.1E1,4.5E1,6.8E1,1E0,7.9E1,7.4E1,6.8E1,2.3E1,2.3E1,2.5E1,3.6E1,3E1,5.3E1,1E0,9.9E1,3.3E1,7.4E1,4.7E1,3.6E1,1.53E2,1.21E2,2.3E1,7.7E1,5.7E1,9.2E1,4.9E1,1.6E1,1.8E1,1.5E1,1.53E2,2.3E1,6.9E1,5.8E1,2.1E1,9.7E1,1.35E2,4E1,5.8E1,8E0,9E1,1.8E1,1.12E2,6.8E1,4.1E1,3.2E1,5.5E1,7E0,6E0,6E0],"tree_param":{"num_deleted":"0","num_feature":"16","num_nodes":"125","size_leaf_vector":"1"}},{"base_weights":[3.6726545E3,-2.3049858E5,2.605278E5,-3.7051488E5,-1.02589625E5,1.866515E5,4.316517E5,-2.929298E5,-5.1336612E5,2.5468502E4,-1.7942425E5,3.411596E5,1.225351E5,5.77712E5,3.4572684E5,-1.9632319E5,-3.3876825E5,-5.9088675E5,-4.3710797E5,-4.457732E4,9.411191E4,-2.4361669E5,-1.07441695E5,2.5551077E5,4.5346534E5,3.802876E4,1.8597314E5,4.4996547E5,7.373566E5,3.8507128E5,1.5955556E5,-2.4649214E5,-5.463596E4,-3.8798556E5,-2.6429862E5,-6.4236344E4,-5.339879E4,-5.0887414E4,-3.956088E5,-1.0534435E5,3.7358535E4,-1.0271066E3,1.4697642E5,-3.2555338E5,-1.9561183E5,-3.536465E4,-1.7708511E5,1.7972139E5,3.335641E5,3.9533122E5,5.505974E5,1.0911803E5,-5.8213383E4,9.4298664E4,2.5602264E5,2.4890644E5,4.6524147E5,7.65186E5,3.61677E5,2.7634544E5,4.5345638E5,-2.7211857E4,1.8397719E5,-2.8289941E4,-1.2055896E4,-1.5780448E4,4.6510376E3,-4.327345E4,-3.276839E4,-3.2454426E4,-2.0916076E4,-1.3154655E4,-4.0555184E4,-1.2823454E4,-7.034421E2,-1.0450245E3,1.6875363E4,4.4777124E3,-1.3265008E4,2.5351553E4,9.460015E3,-2.2938342E4,-3.622452E4,-1.6592957E4,-3.5717855E4,-7.357489E2,-1.9859818E4,-1.9958436E4,1.3214467E3,1.1393475E4,2.4882385E4,2.6618998E4,4.152092E4,4.4962023E4,2.8100566E4,1.5652825E4,5.5565145E4,3.2128135E3,2.0293945E4,-3.2603044E3,-2.0178611E4,1.4063633E4,2.2941697E3,3.0701412E4,1.1520937E4,2.7528256E4,1.0439334E4,4.701111E4,1.8358251E3,8.042873E4,4.5797016E4,3.9003043E4,9.577825E3,3.5015004E4,1.6879904E4,2.8301389E4,5.1238457E4,6.9621665E3,-7.9869604E3,1.1315308E4,2.5296092E4],"categories":[],"categories_nodes":[],"categories_segments":[],"categories_sizes":[],"default_left":[0,0,0,0,0,0,0,0,0,0,0,0,0,0,0,0,0,0,0,0,0,0,0,0,0,0,0,0,0,0,0,0,0,0,0,0,0,0,0,0,0,0,0,0,0,0,0,0,0,0,0,0,0,0,0,0,0,0,0,0,0,0,0,0,0,0,0,0,0,0,0,0,0,0,0,0,0,0,0,0,0,0,0,0,0,0,0,0,0,0,0,0,0,0,0,0,0,0,0,0,0,0,0,0,0,0,0,0,0,0,0,0,0,0,0,0,0,0,0,0,0],"id":14,"left_children":[1,3,5,7,9,11,13,15,17,19,21,23,25,27,29,31,33,35,37,39,41,43,45,47,49,51,53,55,57,59,61,63,65,67,69,-1,-1,-1,71,73,75,77,79,81,83,85,87,89,91,93,95,97,99,101,103,105,107,109,111,113,115,117,119,-1,-1,-1,-1,-1,-1,-1,-1,-1,-1,-1,-1,-1,-1,-1,-1,-1,-1,-1,-1,-1,-1,-1,-1,-1,-1,-1,-1,-1,-1,-1,-1,-1,-1,-1,-1,-1,-1,-1,-1,-1,-1,-1,-1,-1,-1,-1,-1,-1,-1,-1,-1,-1,-1,-1,-1,-1,-1],"loss_changes":[1.9397748E14,3.0175056E13,1.936282E13,8.771523E12,8.692671E12,1.06176E13,5.611014E12,2.2539183E12,1.4087912E12,1.6005122E12,2.5244698E12,2.9140724E12,4.0779467E12,3.1352045E12,2.0920538E12,1.2020524E12,1.1949362E12,5.825469E10,2.335053E11,8.2547035E11,8.451031E11,1.0809246E12,1.308897E12,1.0107769E12,5.4463667E11,2.250457E12,2.7693186E12,1.8212297E11,4.9691178E11,1.6740096E12,2.4674789E11,5.4358914E11,4.8735506E11,4.2756735E11,4.104588E11,0E0,0E0,0E0,2.0133183E11,2.1287954E11,4.477741E11,3.7370194E11,5.786708E11,2.909442E11,8.3272715E11,5.928608E11,5.7208943E11,3.989761E11,3.7354367E11,4.198362E11,8.623489E9,1.3586842E12,5.0819357E11,6.250116E11,1.7309767E12,5.567611E9,1.850464E11,4.485137E11,1.5417541E10,7.0288776E11,1.3314378E12,4.1253896E10,2.0100507E11,0E0,0E0,0E0,0E0,0E0,0E0,0E0,0E0,0E0,0E0,0E0,0E0,0E0,0E0,0E0,0E0,0E0,0E0,0E0,0E0,0E0,0E0,0E0,0E0,0E0,0E0,0E0,0E0,0E0,0E0,0E0,0E0,0E0,0E0,0E0,0E0,0E0,0E0,0E0,0E0,0E0,0E0,0E0,0E0,0E0,0E0,0E0,0E0,0E0,0E0,0E0,0E0,0E0,0E0,0E0,0E0,0E0,0E0],"parents":[2147483647,0,0,1,1,2,2,3,3,4,4,5,5,6,6,7,7,8,8,9,9,10,10,11,11,12,12,13,13,14,14,15,15,16,16,17,17,18,18,19,19,20,20,21,21,22,22,23,23,24,24,25,25,26,26,27,27,28,28,29,29,30,30,31,31,32,32,33,33,34,34,38,38,39,39,40,40,41,41,42,42,43,43,44,44,45,45,46,46,47,47,48,48,49,49,50,50,51,51,52,52,53,53,54,54,55,55,56,56,57,57,58,58,59,59,60,60,61,61,62,62],"right_children":[2,4,6,8,10,12,14,16,18,20,22,24,26,28,30,32,34,36,38,40,42,44,46,48,50,52,54,56,58,60,62,64,66,68,70,-1,-1,-1,72,74,76,78,80,82,84,86,88,90,92,94,96,98,100,102,104,106,108,110,112,114,116,118,120,-1,-1,-1,-1,-1,-1,-1,-1,-1,-1,-1,-1,-1,-1,-1,-1,-1,-1,-1,-1,-1,-1,-1,-1,-1,-1,-1,-1,-1,-1,-1,-1,-1,-1,-1,-1,-1,-1,-1,-1,-1,-1,-1,-1,-1,-1,-1,-1,-1,-1,-1,-1,-1,-1,-1,-1,-1,-1],"split_conditions":[6.18E2,4.52E2,8.21E2,4.254621E6,2.81688E6,2.392243E6,2.870472E6,2.133124E6,3.76E2,5.31E2,5.41E2,2.022E3,2.021E3,2.022E3,1E0,8E0,3.8E2,3.36E2,1.6666668E-2,1.7441861E-2,4.639175E-2,1.5734266E-2,4.271334E6,7.23E2,7.43E2,4.406396E6,7.1E2,4.2801555E-2,1E0,2.021E3,4.222973E-2,2.023E3,3.94E2,2.022E3,2.021E3,-6.4236344E4,-5.339879E4,-5.0887414E4,5.23E2,1E0,2.023E3,2.377912E6,1.667578E6,3.425619E6,5.452005E6,1E0,2.023E3,5.1282052E-2,1.448E0,1.841307E6,5.09E2,1.2E1,1E0,4.520597E6,5.093934E6,1E0,1.7660911E0,1E0,2.451738E6,4.508281E6,1.2E1,3.455044E6,2.022E3,-2.8289941E4,-1.2055896E4,-1.5780448E4,4.6510376E3,-4.327345E4,-3.276839E4,-3.2454426E4,-2.0916076E4,-1.3154655E4,-4.0555184E4,-1.2823454E4,-7.034421E2,-1.0450245E3,1.6875363E4,4.4777124E3,-1.3265008E4,2.5351553E4,9.460015E3,-2.2938342E4,-3.622452E4,-1.6592957E4,-3.5717855E4,-7.357489E2,-1.9859818E4,-1.9958436E4,1.3214467E3,1.1393475E4,2.4882385E4,2.6618998E4,4.152092E4,4.4962023E4,2.8100566E4,1.5652825E4,5.5565145E4,3.2128135E3,2.0293945E4,-3.2603044E3,-2.0178611E4,1.4063633E4,2.2941697E3,3.0701412E4,1.1520937E4,2.7528256E4,1.0439334E4,4.701111E4,1.8358251E3,8.042873E4,4.5797016E4,3.9003043E4,9.577825E3,3.5015004E4,1.6879904E4,2.8301389E4,5.1238457E4,6.9621665E3,-7.9869604E3,1.1315308E4,2.5296092E4],"split_indices":[2,2,2,5,5,5,5,5,2,2,2,0,0,0,10,3,2,2,8,8,7,8,5,2,2,5,2,7,11,0,7,0,2,0,0,0,0,0,4,12,0,5,5,5,5,10,0,7,9,5,4,3,10,5,5,10,9,10,5,5,3,5,0,0,0,0,0,0,0,0,0,0,0,0,0,0,0,0,0,0,0,0,0,0,0,0,0,0,0,0,0,0,0,0,0,0,0,0,0,0,0,0,0,0,0,0,0,0,0,0,0,0,0,0,0,0,0,0,0,0,0],"split_type":[0,0,0,0,0,0,0,0,0,0,0,0,0,0,0,0,0,0,0,0,0,0,0,0,0,0,0,0,0,0,0,0,0,0,0,0,0,0,0,0,0,0,0,0,0,0,0,0,0,0,0,0,0,0,0,0,0,0,0,0,0,0,0,0,0,0,0,0,0,0,0,0,0,0,0,0,0,0,0,0,0,0,0,0,0,0,0,0,0,0,0,0,0,0,0,0,0,0,0,0,0,0,0,0,0,0,0,0,0,0,0,0,0,0,0,0,0,0,0,0,0],"sum_hessian":[3.223E3,1.686E3,1.537E3,8.04E2,8.82E2,1.075E3,4.62E2,5.23E2,2.81E2,3.31E2,5.51E2,3.14E2,7.61E2,1.69E2,2.93E2,1.7E2,3.53E2,1.36E2,1.45E2,1.64E2,1.67E2,2.9E2,2.61E2,1.8E2,1.34E2,3.27E2,4.34E2,9.6E1,7.3E1,2.41E2,5.2E1,1.25E2,4.5E1,2.1E2,1.43E2,6.6E1,7E1,4.9E1,9.6E1,9.4E1,7E1,6E1,1.07E2,1.05E2,1.85E2,1.29E2,1.32E2,9.3E1,8.7E1,8.7E1,4.7E1,1.88E2,1.39E2,1.89E2,2.45E2,8E0,8.8E1,6.7E1,6E0,9.5E1,1.46E2,6E0,4.6E1,9.6E1,2.9E1,2.2E1,2.3E1,1.17E2,9.3E1,6.6E1,7.7E1,4E0,9.2E1,7.6E1,1.8E1,5.2E1,1.8E1,4.5E1,1.5E1,3.4E1,7.3E1,3.1E1,7.4E1,1.58E2,2.7E1,1.11E2,1.8E1,1.18E2,1.4E1,4.9E1,4.4E1,5E1,3.7E1,5.7E1,3E1,1E0,4.6E1,1.04E2,8.4E1,1.19E2,2E1,1.14E2,7.5E1,1.79E2,6.6E1,6E0,2E0,8.7E1,1E0,5.8E1,9E0,5E0,1E0,5.5E1,4E1,3.9E1,1.07E2,2E0,4E0,2.4E1,2.2E1],"tree_param":{"num_deleted":"0","num_feature":"16","num_nodes":"121","size_leaf_vector":"1"}},{"base_weights":[-4.903424E2,-2.4363289E5,2.7523362E5,-4.380087E5,-1.339947E5,1.7300105E5,5.300544E5,-5.7638525E5,-3.7823856E5,-2.0980016E5,-5.5967543E4,1.0079135E5,2.674034E5,4.6182856E5,7.5577794E5,-7.579113E4,-5.4555395E4,-4.230062E5,-3.2728844E5,-2.429653E5,-1.6534972E5,-8.58638E4,-1.100246E4,6.515633E4,1.5101575E5,2.3241877E5,3.166317E5,4.056545E4,5.378584E4,7.037019E4,1.0421446E5,-4.440126E4,-3.8293656E4,-2.9074092E4,-3.459932E4,-2.2017867E5,-2.8560154E4,-1.2807355E5,-1.882169E5,-5.9637445E4,-1.1534257E5,4.1286777E4,-3.479216E4,9.710046E4,4.8844812E4,1.3905164E5,2.1094928E5,2.2122094E5,3.3554824E4,3.7287305E4,2.927373E5,-2.5100482E4,-1.917688E4,-1.4185182E4,-9.22998E3,-1.750494E4,-2.3530484E4,-1.0798558E4,-4.6144614E3,-9.116533E3,-1.3862664E4,-5.7278584E3,5.001861E3,-5.5772417E3,-1.4449941E3,5.7328433E3,1.201993E4,2.1732808E3,7.1030796E3,8.858532E3,1.4748444E4,6.35325E3,2.1703615E4,2.4038549E4,1.9864428E4,1.066745E4,2.946892E4],"categories":[],"categories_nodes":[],"categories_segments":[],"categories_sizes":[],"default_left":[0,0,0,0,0,0,0,0,0,0,0,0,0,0,0,0,0,0,0,0,0,0,0,0,0,0,0,0,0,0,0,0,0,0,0,0,0,0,0,0,0,0,0,0,0,0,0,0,0,0,0,0,0,0,0,0,0,0,0,0,0,0,0,0,0,0,0,0,0,0,0,0,0,0,0,0,0],"id":15,"left_children":[1,3,5,7,9,11,13,15,17,19,21,23,25,27,29,-1,-1,31,33,35,37,39,41,43,45,47,49,-1,-1,-1,-1,-1,-1,-1,-1,51,-1,53,55,57,59,61,63,65,67,69,71,73,-1,-1,75,-1,-1,-1,-1,-1,-1,-1,-1,-1,-1,-1,-1,-1,-1,-1,-1,-1,-1,-1,-1,-1,-1,-1,-1,-1,-1],"loss_changes":[2.145958E14,3.6191332E13,3.898478E13,4.851979E12,6.429566E12,7.2806176E12,6.257633E12,6.1071163E11,8.44628E11,7.7358694E11,7.222822E11,1.08011664E12,7.255265E11,1.1997555E12,7.281018E11,0E0,0E0,2.0203962E10,4.0229667E10,2.4217911E11,1.7961845E11,2.4283919E11,2.7012864E11,1.8179568E11,1.5136457E11,2.4334723E11,1.4617779E11,0E0,0E0,0E0,0E0,0E0,0E0,0E0,0E0,1.348993E11,0E0,3.323986E10,4.9334452E10,1.0787416E11,7.236669E10,6.138962E10,6.278506E10,1.0335158E11,1.4221633E11,7.758204E10,2.2103458E10,6.0848865E10,0E0,0E0,1.8680381E10,0E0,0E0,0E0,0E0,0E0,0E0,0E0,0E0,0E0,0E0,0E0,0E0,0E0,0E0,0E0,0E0,0E0,0E0,0E0,0E0,0E0,0E0,0E0,0E0,0E0,0E0],"parents":[2147483647,0,0,1,1,2,2,3,3,4,4,5,5,6,6,7,7,8,8,9,9,10,10,11,11,12,12,13,13,14,14,17,17,18,18,19,19,20,20,21,21,22,22,23,23,24,24,25,25,26,26,35,35,37,37,38,38,39,39,40,40,41,41,42,42,43,43,44,44,45,45,46,46,47,47,50,50],"right_children":[2,4,6,8,10,12,14,16,18,20,22,24,26,28,30,-1,-1,32,34,36,38,40,42,44,46,48,50,-1,-1,-1,-1,-1,-1,-1,-1,52,-1,54,56,58,60,62,64,66,68,70,72,74,-1,-1,76,-1,-1,-1,-1,-1,-1,-1,-1,-1,-1,-1,-1,-1,-1,-1,-1,-1,-1,-1,-1,-1,-1,-1,-1,-1,-1],"split_conditions":[4.005169E6,2.716422E6,5.366884E6,1.970898E6,3.386734E6,4.70474E6,6.255924E6,1.39272E6,2.410918E6,3.092371E6,3.768409E6,4.406525E6,5.052585E6,5.767075E6,7.034884E6,-7.579113E4,-5.4555395E4,2.256662E6,2E1,2.6E1,2.4E1,2.9E1,2.8E1,1E1,1.9470085E0,1.9823321E0,3.6E1,4.056545E4,5.378584E4,7.037019E4,1.0421446E5,-4.440126E4,-3.8293656E4,-2.9074092E4,-3.459932E4,2.891034E6,-2.8560154E4,4.7449585E-2,1E0,3.474327E6,1E1,1.362862E-2,5.357143E-2,4.097423E6,4.215121E6,4.452257E6,1.11854E6,4E1,3.3554824E4,3.7287305E4,4.0816326E-2,-2.5100482E4,-1.917688E4,-1.4185182E4,-9.22998E3,-1.750494E4,-2.3530484E4,-1.0798558E4,-4.6144614E3,-9.116533E3,-1.3862664E4,-5.7278584E3,5.001861E3,-5.5772417E3,-1.4449941E3,5.7328433E3,1.201993E4,2.1732808E3,7.1030796E3,8.858532E3,1.4748444E4,6.35325E3,2.1703615E4,2.4038549E4,1.9864428E4,1.066745E4,2.946892E4],"split_indices":[6,6,6,6,6,6,6,6,6,6,6,6,6,6,6,0,0,6,1,1,1,1,1,3,9,9,1,0,0,0,0,0,0,0,0,6,0,7,10,6,3,8,7,6,6,6,5,1,0,0,7,0,0,0,0,0,0,0,0,0,0,0,0,0,0,0,0,0,0,0,0,0,0,0,0,0,0],"split_type":[0,0,0,0,0,0,0,0,0,0,0,0,0,0,0,0,0,0,0,0,0,0,0,0,0,0,0,0,0,0,0,0,0,0,0,0,0,0,0,0,0,0,0,0,0,0,0,0,0,0,0,0,0,0,0,0,0,0,0,0,0,0,0,0,0,0,0,0,0,0,0,0,0,0,0,0,0],"sum_hessian":[3.199E3,1.7E3,1.499E3,6.12E2,1.088E3,1.071E3,4.28E2,1.82E2,4.3E2,5.51E2,5.37E2,6.08E2,4.63E2,3.31E2,9.7E1,2.3E1,1.59E2,2.25E2,2.05E2,3.13E2,2.38E2,3.22E2,2.15E2,3.57E2,2.51E2,2.74E2,1.89E2,1.94E2,1.37E2,8.5E1,1.2E1,1.41E2,8.4E1,7.5E1,1.3E2,2.08E2,1.05E2,9.3E1,1.45E2,1.72E2,1.5E2,6.7E1,1.48E2,1.19E2,2.38E2,2.12E2,3.9E1,2.5E2,2.4E1,5.2E1,1.37E2,9.6E1,1.12E2,6.5E1,2.8E1,1.17E2,2.8E1,3.6E1,1.36E2,7.6E1,7.4E1,5E0,6.2E1,7.2E1,7.6E1,4.5E1,7.4E1,1.08E2,1.3E2,3.2E1,1.8E2,2E0,3.7E1,1.3E2,1.2E2,2E0,1.35E2],"tree_param":{"num_deleted":"0","num_feature":"16","num_nodes":"77","size_leaf_vector":"1"}},{"base_weights":[4.917391E3,-2.3776997E5,2.3739736E5,-4.0424172E5,-1.3788214E5,1.3397572E5,4.6072125E5,-5.315439E5,-3.4914647E5,-1.9812783E5,-7.157489E4,6.980365E4,2.2073745E5,3.947127E5,6.4742706E5,-6.2963125E4,-4.887415E4,-3.9932727E4,-3.092244E5,-2.3946656E5,-1.6841403E5,-1.0501827E5,-3.8252844E4,2.9044102E4,1.0474061E5,1.8892873E5,2.6737812E5,3.4266712E5,4.5615516E4,6.063402E4,9.3296055E4,-2.932844E5,-3.6374594E4,-2.0870312E5,-2.79191E4,-1.3578389E5,-2.0079155E5,-7.373097E4,-1.4146461E5,-6.6504463E3,-7.060872E4,6.690391E4,2.3567598E3,1.8019016E5,8.871392E4,2.3413456E5,1.6640016E5,3.4994254E4,2.47269E5,3.8205926E4,3.161E5,-3.2662193E4,-2.7194912E4,-2.2314166E4,-1.6392049E4,-9.501346E3,-1.4741713E4,-1.8338922E4,-2.4898271E4,-3.8079246E3,-9.069949E3,-1.1765712E4,-1.6625201E4,3.524E3,-2.4806873E3,-1.1740407E4,-6.2033174E3,1.4645966E4,5.7072397E3,1.1452573E3,-4.645498E3,1.8487088E4,2.9632834E3,6.74332E3,1.1648721E4,1.9867098E4,2.6461656E4,1.4628911E4,1.934812E4,2.6268578E4,2.1390182E4,2.8867379E4,3.5722508E4],"categories":[],"categories_nodes":[],"categories_segments":[],"categories_sizes":[],"default_left":[0,0,0,0,0,0,0,0,0,0,0,0,0,0,0,0,0,0,0,0,0,0,0,0,0,0,0,0,0,0,0,0,0,0,0,0,0,0,0,0,0,0,0,0,0,0,0,0,0,0,0,0,0,0,0,0,0,0,0,0,0,0,0,0,0,0,0,0,0,0,0,0,0,0,0,0,0,0,0,0,0,0,0],"id":16,"left_children":[1,3,5,7,9,11,13,15,17,19,21,23,25,27,29,-1,-1,-1,31,33,35,37,39,41,43,45,47,49,-1,-1,-1,51,-1,53,-1,55,57,59,61,63,65,67,69,71,73,75,77,-1,79,-1,81,-1,-1,-1,-1,-1,-1,-1,-1,-1,-1,-1,-1,-1,-1,-1,-1,-1,-1,-1,-1,-1,-1,-1,-1,-1,-1,-1,-1,-1,-1,-1,-1],"loss_changes":[1.8127733E14,2.6084268E13,3.783967E13,3.9455063E12,3.9166264E12,6.237098E12,6.1407043E12,4.3118703E11,7.058972E11,5.92263E11,5.1975186E11,9.182957E11,6.57151E11,1.0780452E12,1.00635614E12,0E0,0E0,0E0,9.755112E10,2.0203019E11,2.9284945E11,2.5640147E11,2.418684E11,3.0295553E11,4.0481823E11,2.5332757E11,2.305871E11,1.02143885E11,0E0,0E0,0E0,4.418175E10,0E0,4.3600314E10,0E0,5.9034567E10,8.01348E10,7.398071E10,4.358262E10,9.2904464E10,3.9668613E10,8.86282E10,7.9116935E10,3.6804624E10,1.6295422E11,4.796134E10,7.789819E10,0E0,2.4574427E10,0E0,4.6889173E10,0E0,0E0,0E0,0E0,0E0,0E0,0E0,0E0,0E0,0E0,0E0,0E0,0E0,0E0,0E0,0E0,0E0,0E0,0E0,0E0,0E0,0E0,0E0,0E0,0E0,0E0,0E0,0E0,0E0,0E0,0E0,0E0],"parents":[2147483647,0,0,1,1,2,2,3,3,4,4,5,5,6,6,7,7,8,8,9,9,10,10,11,11,12,12,13,13,14,14,18,18,19,19,20,20,21,21,22,22,23,23,24,24,25,25,26,26,27,27,31,31,33,33,35,35,36,36,37,37,38,38,39,39,40,40,41,41,42,42,43,43,44,44,45,45,46,46,48,48,50,50],"right_children":[2,4,6,8,10,12,14,16,18,20,22,24,26,28,30,-1,-1,-1,32,34,36,38,40,42,44,46,48,50,-1,-1,-1,52,-1,54,-1,56,58,60,62,64,66,68,70,72,74,76,78,-1,80,-1,82,-1,-1,-1,-1,-1,-1,-1,-1,-1,-1,-1,-1,-1,-1,-1,-1,-1,-1,-1,-1,-1,-1,-1,-1,-1,-1,-1,-1,-1,-1,-1,-1],"split_conditions":[3.888152E6,2.664146E6,5.288E6,1.939512E6,3.305141E6,4.626347E6,6.142157E6,1.540417E6,2.29127E6,2.941026E6,3.616671E6,4.215121E6,4.966924E6,5.664602E6,7.034884E6,-6.2963125E4,-4.887415E4,-3.9932727E4,4.57E2,4.57E2,4.82E2,5.45E2,5.85E2,6.07E2,5.85E2,7.02E2,6.59E2,7.77E2,4.5615516E4,6.063402E4,9.3296055E4,2.425598E6,-3.6374594E4,3.687772E6,-2.79191E4,3.67E2,5.88E2,4.52E2,6.27E2,4.68E2,3.659429E6,4.54E2,7.89E2,1.463E3,4.452257E6,4.752493E6,4.82912E6,3.4994254E4,4.3E1,3.8205926E4,5.520171E6,-3.2662193E4,-2.7194912E4,-2.2314166E4,-1.6392049E4,-9.501346E3,-1.4741713E4,-1.8338922E4,-2.4898271E4,-3.8079246E3,-9.069949E3,-1.1765712E4,-1.6625201E4,3.524E3,-2.4806873E3,-1.1740407E4,-6.2033174E3,1.4645966E4,5.7072397E3,1.1452573E3,-4.645498E3,1.8487088E4,2.9632834E3,6.74332E3,1.1648721E4,1.9867098E4,2.6461656E4,1.4628911E4,1.934812E4,2.6268578E4,2.1390182E4,2.8867379E4,3.5722508E4],"split_indices":[6,6,6,6,6,6,6,6,6,6,6,6,6,6,6,0,0,0,2,2,2,2,2,2,2,2,2,2,0,0,0,6,0,5,0,2,2,2,2,2,6,2,2,4,6,6,6,0,1,0,6,0,0,0,0,0,0,0,0,0,0,0,0,0,0,0,0,0,0,0,0,0,0,0,0,0,0,0,0,0,0,0,0],"split_type":[0,0,0,0,0,0,0,0,0,0,0,0,0,0,0,0,0,0,0,0,0,0,0,0,0,0,0,0,0,0,0,0,0,0,0,0,0,0,0,0,0,0,0,0,0,0,0,0,0,0,0,0,0,0,0,0,0,0,0,0,0,0,0,0,0,0,0,0,0,0,0,0,0,0,0,0,0,0,0,0,0,0,0],"sum_hessian":[3.211E3,1.571E3,1.64E3,5.88E2,9.83E2,1.122E3,5.18E2,1.75E2,4.13E2,5.14E2,4.69E2,6.46E2,4.76E2,3.85E2,1.33E2,4.9E1,1.26E2,1.79E2,2.34E2,2.12E2,3.02E2,2.33E2,2.36E2,2.99E2,3.47E2,2.86E2,1.9E2,2.12E2,1.73E2,1.19E2,1.4E1,1.86E2,4.8E1,1.23E2,8.9E1,1.53E2,1.49E2,1.27E2,1.06E2,1.2E2,1.16E2,1.23E2,1.76E2,5.9E1,2.88E2,9.2E1,1.94E2,3.4E1,1.56E2,8E1,1.32E2,6.7E1,1.19E2,9E1,3.3E1,3.6E1,1.17E2,1.13E2,3.6E1,4.2E1,8.5E1,5.7E1,4.9E1,3.6E1,8.4E1,1.6E1,1E2,1.2E1,1.11E2,1.49E2,2.7E1,5.7E1,2E0,1.65E2,1.23E2,4.6E1,4.6E1,1.15E2,7.9E1,1.02E2,5.4E1,8.4E1,4.8E1],"tree_param":{"num_deleted":"0","num_feature":"16","num_nodes":"83","size_leaf_vector":"1"}},{"base_weights":[1.1639738E3,-1.9514558E5,2.3025736E5,-3.3597625E5,-9.473767E4,1.3892342E5,4.1773328E5,-4.408252E5,-2.754925E5,-1.5200034E5,-3.590809E4,8.259155E4,2.1257752E5,3.6801125E5,6.0498575E5,-5.2576082E4,-3.9754637E4,-3.1000697E5,-2.357322E5,-1.8288378E5,-1.3121931E5,-7.045853E3,-6.4626695E4,5.378654E4,1.22641836E5,2.7048044E5,1.9606558E5,3.219946E5,4.3003445E4,5.5909184E4,8.469703E4,-2.8719822E5,-3.315416E4,-2.106801E5,-2.7854537E4,-1.5007889E5,-2.1035033E5,-8.431043E4,-1.4835725E5,-3.8729895E4,2.5461559E4,-1.0502795E5,-4.3918117E4,1.02524695E5,3.3144973E4,2.033117E4,1.0990684E5,1.8771564E5,2.9201303E5,1.7155452E5,2.3613938E4,3.5142375E4,2.981949E5,-3.0760693E4,-2.411256E4,-2.2372473E4,-1.7683799E4,-1.5450299E4,-5.7966875E3,-1.30643955E4,-2.1627672E4,-1.1397274E4,-5.4080254E3,-1.3455119E4,-1.9062314E4,1.7671605E3,-5.2727046E3,6.3440225E3,1.4236155E3,-1.3531802E4,-9.138878E3,-3.177455E3,-8.722459E3,1.0903279E4,4.6797295E3,1.5666924E3,6.043832E3,1.1947839E4,6.5857446E3,1.9353932E4,3.270925E3,3.2680572E4,2.409912E4,1.4035261E4,1.8422412E4,2.6782463E4,3.2491201E4],"categories":[],"categories_nodes":[],"categories_segments":[],"categories_sizes":[],"default_left":[0,0,0,0,0,0,0,0,0,0,0,0,0,0,0,0,0,0,0,0,0,0,0,0,0,0,0,0,0,0,0,0,0,0,0,0,0,0,0,0,0,0,0,0,0,0,0,0,0,0,0,0,0,0,0,0,0,0,0,0,0,0,0,0,0,0,0,0,0,0,0,0,0,0,0,0,0,0,0,0,0,0,0,0,0,0,0],"id":17,"left_children":[1,3,5,7,9,11,13,15,17,19,21,23,25,27,29,-1,-1,31,33,35,37,39,41,43,45,47,49,51,-1,-1,-1,53,-1,55,-1,57,59,61,63,65,67,69,71,73,75,-1,77,79,81,83,-1,-1,85,-1,-1,-1,-1,-1,-1,-1,-1,-1,-1,-1,-1,-1,-1,-1,-1,-1,-1,-1,-1,-1,-1,-1,-1,-1,-1,-1,-1,-1,-1,-1,-1,-1,-1],"loss_changes":[1.4413912E14,2.4374694E13,2.5266756E13,4.431861E12,3.3935998E12,4.1149205E12,4.2836678E12,7.5039873E11,5.554391E11,3.0395597E11,4.1315736E11,6.4636846E11,3.590429E11,9.603572E11,6.370267E11,0E0,0E0,2.3647486E10,1.7406257E11,1.513415E11,2.3590391E11,2.5847767E11,2.0455057E11,3.295983E11,2.2010475E11,1.1092361E11,2.9247196E11,5.2799996E10,0E0,0E0,0E0,4.336386E10,0E0,2.2682272E10,0E0,3.0165172E10,2.2760915E10,7.005556E10,1.0564456E11,1.0119319E11,5.1961266E10,2.2336438E10,8.5052916E10,3.0440096E10,1.1067918E11,0E0,7.898556E10,1.3529055E10,4.9056055E10,5.874175E10,0E0,0E0,1.9273875E10,0E0,0E0,0E0,0E0,0E0,0E0,0E0,0E0,0E0,0E0,0E0,0E0,0E0,0E0,0E0,0E0,0E0,0E0,0E0,0E0,0E0,0E0,0E0,0E0,0E0,0E0,0E0,0E0,0E0,0E0,0E0,0E0,0E0,0E0],"parents":[2147483647,0,0,1,1,2,2,3,3,4,4,5,5,6,6,7,7,8,8,9,9,10,10,11,11,12,12,13,13,14,14,17,17,18,18,19,19,20,20,21,21,22,22,23,23,24,24,25,25,26,26,27,27,31,31,33,33,35,35,36,36,37,37,38,38,39,39,40,40,41,41,42,42,43,43,44,44,46,46,47,47,48,48,49,49,52,52],"right_children":[2,4,6,8,10,12,14,16,18,20,22,24,26,28,30,-1,-1,32,34,36,38,40,42,44,46,48,50,52,-1,-1,-1,54,-1,56,-1,58,60,62,64,66,68,70,72,74,76,-1,78,80,82,84,-1,-1,86,-1,-1,-1,-1,-1,-1,-1,-1,-1,-1,-1,-1,-1,-1,-1,-1,-1,-1,-1,-1,-1,-1,-1,-1,-1,-1,-1,-1,-1,-1,-1,-1,-1,-1],"split_conditions":[4.034997E6,2.841756E6,5.321874E6,2.14808E6,3.474327E6,4.69677E6,6.255924E6,1.693839E6,2.551162E6,3.092371E6,5.85E2,4.406525E6,6.77E2,5.767075E6,7.034884E6,-5.2576082E4,-3.9754637E4,3.95E2,4.48E2,4.52E2,4.48E2,3.714878E6,3.705842E6,6.07E2,5.75E2,4.770427E6,5.071242E6,7.89E2,4.3003445E4,5.5909184E4,8.469703E4,2.410918E6,-3.315416E4,3.978118E6,-2.7854537E4,4.608483E6,2.1E1,2.099413E6,6.05E2,4.46E2,4.64E2,3.568479E6,1E0,1E0,4.264866E6,2.033117E4,8.07E2,4.2E1,3.4E1,4.812438E6,2.3613938E4,3.5142375E4,3.526459E6,-3.0760693E4,-2.411256E4,-2.2372473E4,-1.7683799E4,-1.5450299E4,-5.7966875E3,-1.30643955E4,-2.1627672E4,-1.1397274E4,-5.4080254E3,-1.3455119E4,-1.9062314E4,1.7671605E3,-5.2727046E3,6.3440225E3,1.4236155E3,-1.3531802E4,-9.138878E3,-3.177455E3,-8.722459E3,1.0903279E4,4.6797295E3,1.5666924E3,6.043832E3,1.1947839E4,6.5857446E3,1.9353932E4,3.270925E3,3.2680572E4,2.409912E4,1.4035261E4,1.8422412E4,2.6782463E4,3.2491201E4],"split_indices":[6,6,6,6,6,6,6,6,6,6,2,6,2,6,6,0,0,2,2,2,2,6,6,2,2,6,6,2,0,0,0,6,0,5,0,5,1,5,2,2,2,6,10,13,6,0,2,1,1,6,0,0,5,0,0,0,0,0,0,0,0,0,0,0,0,0,0,0,0,0,0,0,0,0,0,0,0,0,0,0,0,0,0,0,0,0,0],"split_type":[0,0,0,0,0,0,0,0,0,0,0,0,0,0,0,0,0,0,0,0,0,0,0,0,0,0,0,0,0,0,0,0,0,0,0,0,0,0,0,0,0,0,0,0,0,0,0,0,0,0,0,0,0,0,0,0,0,0,0,0,0,0,0,0,0,0,0,0,0,0,0,0,0,0,0,0,0,0,0,0,0,0,0,0,0,0,0],"sum_hessian":[3.203E3,1.725E3,1.478E3,7.17E2,1.008E3,9.95E2,4.83E2,2.6E2,4.57E2,5.1E2,4.98E2,5.65E2,4.3E2,3.84E2,9.9E1,8.4E1,1.76E2,2.41E2,2.16E2,2.02E2,3.08E2,2.49E2,2.49E2,3.3E2,2.35E2,9.2E1,3.38E2,2.24E2,1.6E2,8.6E1,1.3E1,1.24E2,1.17E2,1.4E2,7.6E1,9.5E1,1.07E2,8.4E1,2.24E2,1.26E2,1.23E2,8.3E1,1.66E2,9.7E1,2.33E2,3E1,2.05E2,2.1E1,7.1E1,2.13E2,1.25E2,9.4E1,1.3E2,8.2E1,4.2E1,9.7E1,4.3E1,9E1,5E0,9E0,9.8E1,4.1E1,4.3E1,1.72E2,5.2E1,2.5E1,1.01E2,2.7E1,9.6E1,2.3E1,6E1,1.31E2,3.5E1,8.6E1,1.1E1,1.43E2,9E1,1.67E2,3.8E1,2E1,1E0,3.9E1,3.2E1,6.5E1,1.48E2,6.6E1,6.4E1],"tree_param":{"num_deleted":"0","num_feature":"16","num_nodes":"87","size_leaf_vector":"1"}},{"base_weights":[-2.0672058E3,-1.9485186E5,1.8748167E5,-3.2328566E5,-1.0942958E5,9.4064195E4,3.4764738E5,-4.4252966E5,-2.7941438E5,-1.5901534E5,-5.8130324E4,4.15023E4,1.5186169E5,2.910974E5,4.93454E5,-5.727059E4,-4.088934E4,-3.197385E5,-2.4819664E5,-1.8637848E5,-1.3276738E5,-7.663853E4,-2.6311012E4,2.0977613E4,6.8333484E4,1.23204234E5,1.8024573E5,2.5055977E5,3.375653E5,4.3864426E4,6.167725E4,-3.0765775E4,-3.711854E4,-2.3112364E5,-2.935917E5,-1.6497606E5,-2.3132114E5,-1.199404E5,-2.0336756E4,-6.2397285E4,-1.1851907E5,7.5313843E3,-5.4532914E4,5.0753918E4,4.624779E2,1.286042E5,5.4650836E4,1.4823356E5,9.430779E4,2.4385127E4,1.6713805E5,2.9299682E4,2.2079236E5,3.1805056E5,3.7314984E4,-2.5031744E4,-1.9968383E4,-2.9561994E4,-7.7835127E3,-1.2899965E4,-1.764928E4,-6.379775E3,-2.3276178E4,-9.114898E3,-1.3644908E4,1.1417375E3,-6.777535E3,-1.40934795E4,-9.35743E3,4.009565E3,-4.738873E2,-3.219681E3,-8.444015E3,1.2542642E4,4.2374946E3,-3.32007E3,1.0872938E3,1.3344775E4,-3.49905E3,9.128838E3,4.489087E3,1.5974599E4,1.0834448E4,7.8821875E3,1.1317276E4,1.7956797E4,1.3798575E4,2.3898773E4,1.8978535E4,3.5214418E4,2.9063553E4],"categories":[],"categories_nodes":[],"categories_segments":[],"categories_sizes":[],"default_left":[0,0,0,0,0,0,0,0,0,0,0,0,0,0,0,0,0,0,0,0,0,0,0,0,0,0,0,0,0,0,0,0,0,0,0,0,0,0,0,0,0,0,0,0,0,0,0,0,0,0,0,0,0,0,0,0,0,0,0,0,0,0,0,0,0,0,0,0,0,0,0,0,0,0,0,0,0,0,0,0,0,0,0,0,0,0,0,0,0,0,0],"id":18,"left_children":[1,3,5,7,9,11,13,15,17,19,21,23,25,27,29,-1,-1,31,33,35,37,39,41,43,45,47,49,51,53,-1,-1,-1,-1,55,57,59,61,63,-1,65,67,69,71,73,75,77,79,81,83,-1,85,-1,87,89,-1,-1,-1,-1,-1,-1,-1,-1,-1,-1,-1,-1,-1,-1,-1,-1,-1,-1,-1,-1,-1,-1,-1,-1,-1,-1,-1,-1,-1,-1,-1,-1,-1,-1,-1,-1,-1],"loss_changes":[1.1653279E14,1.7309951E13,2.4026643E13,3.1773572E12,2.409827E12,3.0832884E12,4.737609E12,5.0143533E11,5.0473415E11,3.221582E11,2.7418637E11,2.9264124E11,3.714853E11,7.235258E11,8.3794225E11,0E0,0E0,9.483321E9,1.3830193E11,1.8691758E11,2.020045E11,1.6914855E11,1.6659756E11,1.8567948E11,1.8346895E11,1.6249546E11,1.6016998E11,2.2964339E11,1.8119393E10,0E0,0E0,0E0,0E0,6.949857E10,7.185367E9,4.435424E10,2.7682406E9,8.927891E10,0E0,8.930027E10,2.818959E10,3.2155754E10,6.0742304E10,7.22692E10,6.3792288E10,3.7949276E10,6.384242E10,4.1931768E10,2.4967905E10,0E0,4.8781853E10,0E0,3.419354E10,2.29009E10,0E0,0E0,0E0,0E0,0E0,0E0,0E0,0E0,0E0,0E0,0E0,0E0,0E0,0E0,0E0,0E0,0E0,0E0,0E0,0E0,0E0,0E0,0E0,0E0,0E0,0E0,0E0,0E0,0E0,0E0,0E0,0E0,0E0,0E0,0E0,0E0,0E0],"parents":[2147483647,0,0,1,1,2,2,3,3,4,4,5,5,6,6,7,7,8,8,9,9,10,10,11,11,12,12,13,13,14,14,17,17,18,18,19,19,20,20,21,21,22,22,23,23,24,24,25,25,26,26,27,27,28,28,33,33,34,34,35,35,36,36,37,37,39,39,40,40,41,41,42,42,43,43,44,44,45,45,46,46,47,47,48,48,50,50,52,52,53,53],"right_children":[2,4,6,8,10,12,14,16,18,20,22,24,26,28,30,-1,-1,32,34,36,38,40,42,44,46,48,50,52,54,-1,-1,-1,-1,56,58,60,62,64,-1,66,68,70,72,74,76,78,80,82,84,-1,86,-1,88,90,-1,-1,-1,-1,-1,-1,-1,-1,-1,-1,-1,-1,-1,-1,-1,-1,-1,-1,-1,-1,-1,-1,-1,-1,-1,-1,-1,-1,-1,-1,-1,-1,-1,-1,-1,-1,-1],"split_conditions":[3.903596E6,2.716422E6,5.104165E6,1.902096E6,3.319731E6,4.478619E6,6.001768E6,1.39272E6,2.319813E6,3.02156E6,3.691975E6,4.215121E6,4.78611E6,5.520171E6,6.545095E6,-5.727059E4,-4.088934E4,4.45E2,4.57E2,5.05E2,5.88E2,6.18E2,5.77E2,6.07E2,5.85E2,7.39E2,3.2E1,7.67E2,5.829913E6,4.3864426E4,6.167725E4,-3.0765775E4,-3.711854E4,3.75895E6,1.463E3,3.63E2,2E1,4.43E2,-2.0336756E4,3.82E2,3.541385E6,2.4E1,1.1E1,4.54E2,3.994601E6,1.463E3,1E1,4E1,4.670448E6,2.4385127E4,8.12E2,2.9299682E4,2.022E3,7.89E2,3.7314984E4,-2.5031744E4,-1.9968383E4,-2.9561994E4,-7.7835127E3,-1.2899965E4,-1.764928E4,-6.379775E3,-2.3276178E4,-9.114898E3,-1.3644908E4,1.1417375E3,-6.777535E3,-1.40934795E4,-9.35743E3,4.009565E3,-4.738873E2,-3.219681E3,-8.444015E3,1.2542642E4,4.2374946E3,-3.32007E3,1.0872938E3,1.3344775E4,-3.49905E3,9.128838E3,4.489087E3,1.5974599E4,1.0834448E4,7.8821875E3,1.1317276E4,1.7956797E4,1.3798575E4,2.3898773E4,1.8978535E4,3.5214418E4,2.9063553E4],"split_indices":[6,6,6,6,6,6,6,6,6,6,6,6,6,6,6,0,0,2,2,2,2,2,2,2,2,2,1,2,6,0,0,0,0,5,4,2,1,2,0,2,6,1,3,2,6,4,3,1,6,0,2,0,0,2,0,0,0,0,0,0,0,0,0,0,0,0,0,0,0,0,0,0,0,0,0,0,0,0,0,0,0,0,0,0,0,0,0,0,0,0,0],"split_type":[0,0,0,0,0,0,0,0,0,0,0,0,0,0,0,0,0,0,0,0,0,0,0,0,0,0,0,0,0,0,0,0,0,0,0,0,0,0,0,0,0,0,0,0,0,0,0,0,0,0,0,0,0,0,0,0,0,0,0,0,0,0,0,0,0,0,0,0,0,0,0,0,0,0,0,0,0,0,0,0,0,0,0,0,0,0,0,0,0,0,0],"sum_hessian":[3.187E3,1.58E3,1.607E3,6.3E2,9.5E2,1.016E3,5.91E2,1.67E2,4.63E2,4.82E2,4.68E2,5.33E2,4.83E2,4.28E2,1.63E2,3.1E1,1.36E2,1.98E2,2.65E2,2.33E2,2.49E2,2.95E2,1.73E2,3.03E2,2.3E2,2.43E2,2.4E2,2.32E2,1.96E2,1.16E2,4.7E1,1.66E2,3.2E1,1.97E2,6.8E1,1.61E2,7.2E1,2.13E2,3.6E1,2.22E2,7.3E1,7.9E1,9.4E1,1.23E2,1.8E2,4.1E1,1.89E2,1.28E2,1.15E2,3.8E1,2.02E2,9.2E1,1.4E2,1.33E2,6.3E1,1.18E2,7.9E1,6.7E1,1E0,4.2E1,1.19E2,1E0,7.1E1,8E1,1.33E2,1.5E1,2.07E2,3.6E1,3.7E1,2.1E1,5.8E1,5.5E1,3.9E1,1.1E1,1.12E2,4.2E1,1.38E2,4E1,1E0,3.8E1,1.51E2,9.7E1,3.1E1,6.6E1,4.9E1,1.38E2,6.4E1,8.4E1,5.6E1,5.4E1,7.9E1],"tree_param":{"num_deleted":"0","num_feature":"16","num_nodes":"91","size_leaf_vector":"1"}},{"base_weights":[4.469585E2,-1.6463222E5,1.8339297E5,-2.7637225E5,-7.423968E4,1.1366348E5,3.520702E5,-3.742153E5,-2.303621E5,-1.1789105E5,-3.2549795E4,5.2814223E4,1.6682712E5,3.165286E5,5.5593125E5,-5.2370195E4,-3.5168266E5,-2.6493734E5,-1.9636144E5,-1.3672895E5,-9.223091E4,-9.92435E3,-5.6107695E4,3.598915E4,7.90805E4,1.369078E5,2.0063305E5,2.7522972E5,3.7264656E4,4.897941E4,7.5715006E5,-3.848715E4,-3.2229598E4,-2.4400845E5,-2.8977188E4,-1.843557E5,-2.4989215E4,-1.1758049E5,-1.694377E5,-5.2822027E4,-1.1167862E5,-4.1184465E4,1.1126441E4,-1.01312086E5,-4.1824836E4,4.7096293E4,-1.3357771E4,1.5029056E5,6.862365E4,1.8259536E5,1.17538664E5,2.5050711E5,1.8383814E5,3.0628271E4,2.5197212E5,7.863531E4,1.88755E4,-2.6121883E4,-2.081778E4,-1.4742416E4,-1.9510125E4,-1.28376045E4,-8.036511E3,-1.5168667E4,-2.0934664E4,-8.897101E3,-3.397537E3,-9.388395E3,-1.3622297E4,1.08605675E2,-5.2726895E3,6.2331177E3,1.5390605E2,-7.679819E3,-1.1312579E4,-2.2469363E3,-5.506751E3,5.6594385E3,1.4678569E3,6.831853E2,-4.140317E3,3.8105251E3,1.5351144E4,7.960862E3,2.6688662E3,2.344454E4,1.6313513E4,8.841647E3,1.2835941E4,2.687426E4,1.6618453E4,1.6122781E4,2.0485217E4,2.2892256E4,2.750475E4],"categories":[],"categories_nodes":[],"categories_segments":[],"categories_sizes":[],"default_left":[0,0,0,0,0,0,0,0,0,0,0,0,0,0,0,0,0,0,0,0,0,0,0,0,0,0,0,0,0,0,0,0,0,0,0,0,0,0,0,0,0,0,0,0,0,0,0,0,0,0,0,0,0,0,0,0,0,0,0,0,0,0,0,0,0,0,0,0,0,0,0,0,0,0,0,0,0,0,0,0,0,0,0,0,0,0,0,0,0,0,0,0,0,0,0],"id":19,"left_children":[1,3,5,7,9,11,13,15,17,19,21,23,25,27,29,-1,31,33,35,37,39,41,43,45,47,49,51,53,-1,-1,55,-1,-1,57,-1,59,-1,61,63,65,67,69,71,73,75,77,79,81,83,85,87,89,91,-1,93,-1,-1,-1,-1,-1,-1,-1,-1,-1,-1,-1,-1,-1,-1,-1,-1,-1,-1,-1,-1,-1,-1,-1,-1,-1,-1,-1,-1,-1,-1,-1,-1,-1,-1,-1,-1,-1,-1,-1,-1],"loss_changes":[9.5886814E13,1.6837153E13,1.7673216E13,3.2721234E12,1.677677E12,3.4429018E12,3.0120723E12,6.141174E11,5.4752235E11,2.0539507E11,2.5208894E11,2.1767809E11,5.4804768E11,7.711731E11,4.8086647E11,0E0,7.979873E10,5.923301E10,1.2166837E11,1.4166838E11,1.4278499E11,1.6036443E11,1.4555303E11,1.6834871E11,1.3414538E11,2.4844121E11,1.759196E11,8.243695E10,0E0,0E0,8.395686E10,0E0,0E0,3.3185333E10,0E0,5.735396E10,0E0,5.6375116E10,3.4128265E10,4.194214E10,4.3552735E10,4.78719E10,7.157829E10,7.240155E9,4.438727E10,7.614595E10,3.255774E10,2.822439E9,7.664717E10,5.15556E10,5.7032835E10,5.374948E10,6.2949163E10,0E0,7.2430387E9,0E0,0E0,0E0,0E0,0E0,0E0,0E0,0E0,0E0,0E0,0E0,0E0,0E0,0E0,0E0,0E0,0E0,0E0,0E0,0E0,0E0,0E0,0E0,0E0,0E0,0E0,0E0,0E0,0E0,0E0,0E0,0E0,0E0,0E0,0E0,0E0,0E0,0E0,0E0,0E0],"parents":[2147483647,0,0,1,1,2,2,3,3,4,4,5,5,6,6,7,7,8,8,9,9,10,10,11,11,12,12,13,13,14,14,16,16,17,17,18,18,19,19,20,20,21,21,22,22,23,23,24,24,25,25,26,26,27,27,30,30,33,33,35,35,37,37,38,38,39,39,40,40,41,41,42,42,43,43,44,44,45,45,46,46,47,47,48,48,49,49,50,50,51,51,52,52,54,54],"right_children":[2,4,6,8,10,12,14,16,18,20,22,24,26,28,30,-1,32,34,36,38,40,42,44,46,48,50,52,54,-1,-1,56,-1,-1,58,-1,60,-1,62,64,66,68,70,72,74,76,78,80,82,84,86,88,90,92,-1,94,-1,-1,-1,-1,-1,-1,-1,-1,-1,-1,-1,-1,-1,-1,-1,-1,-1,-1,-1,-1,-1,-1,-1,-1,-1,-1,-1,-1,-1,-1,-1,-1,-1,-1,-1,-1,-1,-1,-1,-1],"split_conditions":[4.005169E6,2.891034E6,5.366884E6,2.077635E6,3.474327E6,4.588291E6,6.485177E6,1.39272E6,2.515648E6,3.206615E6,5.85E2,4.342608E6,4.966924E6,5.829913E6,7.034884E6,-5.2370195E4,1.756568E6,4.02E2,5.17E2,5.07E2,2.4E1,3.629086E6,3.659429E6,7.54E2,5.75E2,6.85E2,6.99E2,7.89E2,3.7264656E4,4.897941E4,8.92E2,-3.848715E4,-3.2229598E4,3.98871E6,-2.8977188E4,3.57E2,-2.4989215E4,3.705829E6,5.88E2,1.7258E6,5.75E2,4.57E2,2.2E1,6.21E2,3.3E1,3.8E1,8.04E2,4.36016E6,8.12E2,5.64E2,4.69677E6,4.1E1,3.295416E6,3.0628271E4,3.526459E6,7.863531E4,1.88755E4,-2.6121883E4,-2.081778E4,-1.4742416E4,-1.9510125E4,-1.28376045E4,-8.036511E3,-1.5168667E4,-2.0934664E4,-8.897101E3,-3.397537E3,-9.388395E3,-1.3622297E4,1.08605675E2,-5.2726895E3,6.2331177E3,1.5390605E2,-7.679819E3,-1.1312579E4,-2.2469363E3,-5.506751E3,5.6594385E3,1.4678569E3,6.831853E2,-4.140317E3,3.8105251E3,1.5351144E4,7.960862E3,2.6688662E3,2.344454E4,1.6313513E4,8.841647E3,1.2835941E4,2.687426E4,1.6618453E4,1.6122781E4,2.0485217E4,2.2892256E4,2.750475E4],"split_indices":[6,6,6,6,6,6,6,6,6,6,2,6,6,6,6,0,6,2,2,2,1,6,6,2,2,2,2,2,0,0,2,0,0,5,0,2,0,5,2,5,2,2,1,2,1,1,2,6,2,2,6,1,5,0,5,0,0,0,0,0,0,0,0,0,0,0,0,0,0,0,0,0,0,0,0,0,0,0,0,0,0,0,0,0,0,0,0,0,0,0,0,0,0,0,0],"split_type":[0,0,0,0,0,0,0,0,0,0,0,0,0,0,0,0,0,0,0,0,0,0,0,0,0,0,0,0,0,0,0,0,0,0,0,0,0,0,0,0,0,0,0,0,0,0,0,0,0,0,0,0,0,0,0,0,0,0,0,0,0,0,0,0,0,0,0,0,0,0,0,0,0,0,0,0,0,0,0,0,0,0,0,0,0,0,0,0,0,0,0,0,0,0,0],"sum_hessian":[3.173E3,1.668E3,1.505E3,7.45E2,9.23E2,1.066E3,4.39E2,2.36E2,5.09E2,4.5E2,4.73E2,4.98E2,5.68E2,3.76E2,6.3E1,2.8E1,2.08E2,2.49E2,2.6E2,2.57E2,1.93E2,2.42E2,2.31E2,3.05E2,1.93E2,3.04E2,2.64E2,2.2E2,1.56E2,5E1,1.3E1,9.2E1,1.16E2,1.41E2,1.08E2,2.16E2,4.4E1,1.65E2,9.2E1,6.5E1,1.28E2,9.7E1,1.45E2,5.4E1,1.77E2,2.49E2,5.6E1,2.3E1,1.7E2,8.8E1,2.16E2,6.3E1,2.01E2,8.9E1,1.31E2,1.2E1,1E0,9.1E1,5E1,5.2E1,1.64E2,1.26E2,3.9E1,6.7E1,2.5E1,2.1E1,4.4E1,7.7E1,5.1E1,2.1E1,7.6E1,2.2E1,1.23E2,2E1,3.4E1,7.3E1,1.04E2,1.92E2,5.7E1,3.3E1,2.3E1,1E0,2.2E1,1.34E2,3.6E1,2.1E1,6.7E1,6.1E1,1.55E2,5E1,1.3E1,1.01E2,1E2,7.1E1,6E1],"tree_param":{"num_deleted":"0","num_feature":"16","num_nodes":"95","size_leaf_vector":"1"}},{"base_weights":[1.2079678E3,-1.1772618E5,1.4068886E5,-1.8109377E5,-3.3814426E4,1.0089935E5,2.2432761E5,-1.25164086E5,-2.3368777E5,3.520311E4,-6.312186E4,1.8139262E5,6.753959E4,2.967898E5,1.7280289E5,-1.5915348E5,-6.224724E4,-3.2003353E5,-2.1771952E5,-2.183473E4,6.4840594E4,-8.93675E4,-2.1179898E4,1.3783345E5,2.4131708E5,9.260347E4,-2.0417831E3,2.3443569E5,3.754589E5,1.4460186E5,2.2885934E5,-1.7322652E5,-1.05316945E5,-1.4417025E5,-4.2939438E4,-2.829007E5,-4.0558306E5,-1.9219592E5,-2.5932931E5,-3.464211E4,5.8158816E4,1.16800555E5,1.2004405E4,-6.680302E4,-1.3738103E5,-3.8463098E4,3.700398E4,9.857433E4,1.8174928E5,1.6861978E5,2.697878E5,5.0635008E4,1.4285822E5,-2.287131E4,3.6227973E4,1.629073E5,2.7344634E5,4.664519E5,3.250578E5,8.576529E4,1.6032167E5,2.912816E5,1.7059905E5,-1.0690852E4,-1.8721201E4,-1.7604014E4,-7.5744346E3,-5.2951323E3,-1.6318419E4,-9.95542E2,-9.16487E3,-2.8593014E4,-5.6625625E3,-7.6941E3,-4.1816812E4,-2.3367947E4,-1.7062607E4,-2.7385926E4,-1.8053146E4,-8.209794E3,-1.8144241E3,1.3994383E4,2.4435056E3,8.623842E3,2.0709176E4,-1.4068395E3,6.366983E3,-1.1316929E4,-3.6427712E3,-1.7135379E4,-1.0523425E4,-3.1573713E3,-1.8158223E4,7.5889307E3,-3.6081267E3,4.0907E3,1.2815544E4,1.4956503E4,2.2779648E4,9.49275E2,1.727763E4,3.142778E4,2.081133E4,2.900243E3,1.3703604E4,8.864199E3,1.7428363E4,-6.632341E3,6.797284E2,4.710628E2,8.274587E3,2.4266293E4,1.2677908E4,1.14469795E4,2.8122896E4,2.0849568E4,5.1346434E4,7.7886753E3,3.2802773E4,3.4647896E3,1.2265967E4,9.857797E3,1.7583857E4,3.0308754E4,3.2839832E3,6.21868E3,1.928801E4],"categories":[],"categories_nodes":[],"categories_segments":[],"categories_sizes":[],"default_left":[0,0,0,0,0,0,0,0,0,0,0,0,0,0,0,0,0,0,0,0,0,0,0,0,0,0,0,0,0,0,0,0,0,0,0,0,0,0,0,0,0,0,0,0,0,0,0,0,0,0,0,0,0,0,0,0,0,0,0,0,0,0,0,0,0,0,0,0,0,0,0,0,0,0,0,0,0,0,0,0,0,0,0,0,0,0,0,0,0,0,0,0,0,0,0,0,0,0,0,0,0,0,0,0,0,0,0,0,0,0,0,0,0,0,0,0,0,0,0,0,0,0,0,0,0,0,0],"id":20,"left_children":[1,3,5,7,9,11,13,15,17,19,21,23,25,27,29,31,33,35,37,39,41,43,45,47,49,51,53,55,57,59,61,63,65,67,69,71,73,75,77,79,81,83,85,87,89,91,93,95,97,99,101,103,105,107,109,111,113,115,117,119,121,123,125,-1,-1,-1,-1,-1,-1,-1,-1,-1,-1,-1,-1,-1,-1,-1,-1,-1,-1,-1,-1,-1,-1,-1,-1,-1,-1,-1,-1,-1,-1,-1,-1,-1,-1,-1,-1,-1,-1,-1,-1,-1,-1,-1,-1,-1,-1,-1,-1,-1,-1,-1,-1,-1,-1,-1,-1,-1,-1,-1,-1,-1,-1,-1,-1],"loss_changes":[5.320103E13,9.198098E12,4.8894113E12,2.8711332E12,1.5111764E12,2.6783557E12,1.7221728E12,1.01657503E12,6.2937E11,3.7838792E11,5.7492295E11,7.315443E11,1.2384141E12,8.7342606E11,4.0954547E11,2.1738396E11,2.6270748E11,1.2986614E11,4.0789397E11,8.090183E10,4.0216678E11,3.3967728E11,2.055608E11,2.7862893E11,2.0701774E11,1.0937235E12,1.5148822E11,2.679746E11,2.3819767E11,1.6105603E11,2.848876E11,2.0722011E11,1.2679427E11,4.6860993E10,2.2240874E11,2.2882025E10,5.468114E10,2.0261844E11,1.3489301E11,5.0966045E10,2.6919547E10,1.863431E11,1.00578345E11,3.0713178E11,9.336324E10,1.4906914E11,1.3630955E11,1.534028E11,8.448927E10,2.2832153E10,1.7056976E11,5.305817E11,3.8834484E11,1.5901781E11,9.784029E10,9.025539E10,5.5652647E10,2.3250495E11,1.7026777E10,7.495975E10,1.2446047E11,1.21245794E11,1.0878229E11,0E0,0E0,0E0,0E0,0E0,0E0,0E0,0E0,0E0,0E0,0E0,0E0,0E0,0E0,0E0,0E0,0E0,0E0,0E0,0E0,0E0,0E0,0E0,0E0,0E0,0E0,0E0,0E0,0E0,0E0,0E0,0E0,0E0,0E0,0E0,0E0,0E0,0E0,0E0,0E0,0E0,0E0,0E0,0E0,0E0,0E0,0E0,0E0,0E0,0E0,0E0,0E0,0E0,0E0,0E0,0E0,0E0,0E0,0E0,0E0,0E0,0E0,0E0,0E0],"parents":[2147483647,0,0,1,1,2,2,3,3,4,4,5,5,6,6,7,7,8,8,9,9,10,10,11,11,12,12,13,13,14,14,15,15,16,16,17,17,18,18,19,19,20,20,21,21,22,22,23,23,24,24,25,25,26,26,27,27,28,28,29,29,30,30,31,31,32,32,33,33,34,34,35,35,36,36,37,37,38,38,39,39,40,40,41,41,42,42,43,43,44,44,45,45,46,46,47,47,48,48,49,49,50,50,51,51,52,52,53,53,54,54,55,55,56,56,57,57,58,58,59,59,60,60,61,61,62,62],"right_children":[2,4,6,8,10,12,14,16,18,20,22,24,26,28,30,32,34,36,38,40,42,44,46,48,50,52,54,56,58,60,62,64,66,68,70,72,74,76,78,80,82,84,86,88,90,92,94,96,98,100,102,104,106,108,110,112,114,116,118,120,122,124,126,-1,-1,-1,-1,-1,-1,-1,-1,-1,-1,-1,-1,-1,-1,-1,-1,-1,-1,-1,-1,-1,-1,-1,-1,-1,-1,-1,-1,-1,-1,-1,-1,-1,-1,-1,-1,-1,-1,-1,-1,-1,-1,-1,-1,-1,-1,-1,-1,-1,-1,-1,-1,-1,-1,-1,-1,-1,-1,-1,-1,-1,-1,-1,-1],"split_conditions":[6.27E2,4.84E2,8.19E2,3.357665E6,2.477186E6,2.392243E6,3.055946E6,8E0,3.29E2,9E0,3.1E1,2.022E3,5.093934E6,2.022E3,5E1,2.023E3,2.02E3,5.076622E6,5.162403E6,2.023E3,1.756834E6,4.822806E6,2.023E3,7.21E2,3.3E1,7.31E2,2.022E3,2.02E3,1.667578E6,7.1E2,4.271334E6,1.445849E6,6E0,1.388145E6,2.496916E6,1.481E3,5.8E2,7E0,9E0,7.61E2,1.164806E6,3.4E1,3E1,1.5659954E-2,2.021E3,5.857964E6,4.822806E6,2.02E3,1.122E3,1.046935E6,1.082E3,2.023E3,1.4423077E-2,7.28E2,3.9E1,1.703374E6,8.21E2,1.2E1,1.1E1,2.021E3,2.02E3,1E0,2.02E3,-1.0690852E4,-1.8721201E4,-1.7604014E4,-7.5744346E3,-5.2951323E3,-1.6318419E4,-9.95542E2,-9.16487E3,-2.8593014E4,-5.6625625E3,-7.6941E3,-4.1816812E4,-2.3367947E4,-1.7062607E4,-2.7385926E4,-1.8053146E4,-8.209794E3,-1.8144241E3,1.3994383E4,2.4435056E3,8.623842E3,2.0709176E4,-1.4068395E3,6.366983E3,-1.1316929E4,-3.6427712E3,-1.7135379E4,-1.0523425E4,-3.1573713E3,-1.8158223E4,7.5889307E3,-3.6081267E3,4.0907E3,1.2815544E4,1.4956503E4,2.2779648E4,9.49275E2,1.727763E4,3.142778E4,2.081133E4,2.900243E3,1.3703604E4,8.864199E3,1.7428363E4,-6.632341E3,6.797284E2,4.710628E2,8.274587E3,2.4266293E4,1.2677908E4,1.14469795E4,2.8122896E4,2.0849568E4,5.1346434E4,7.7886753E3,3.2802773E4,